{"hidden_weights": [[-0.3300557676003717, -0.44036763650151667, -0.26143517572106834, 0.33167244924065087, -0.06703195296591469, 0.25124032295587473, 0.01684112174500796, -0.08340825566950427, 0.43998432499061846, 0.3564292045484959, 0.19416875186515903, 0.2631963741240738, 0.10816609020801926, -0.24439698959828704, 0.25971660357980453, -0.12889752347297379, 0.12252414224514352, 0.017139718005577786, 0.2815197793990203, 0.4747424504048029, 0.004570667949565843, -0.4953119195742497, -0.1738531855747505, -0.22258065076343503, 0.33243604014407546, -0.2778372807528021, 0.09485644592928455, 0.3088605451490535, -0.05600722064756669, 0.061662089547881216, 0.043770674025010003, -0.43525901000576905, 0.011805302262425599, -0.025523402962229547, -0.49439255149422845, 0.053028096649729184, -0.18623098898754964, 0.4890874651821846, 0.25773939224792264, -0.145282150274799, 0.12797118447851563, 0.33061825985439963, -0.4810579869977458, -0.1704233873252558, 0.25641822514299667, 0.2724259243056953, -0.03481962931725088, -0.3964629662374981, 0.3383553600845327, 0.18888684313537585, 0.16332014534344685, -0.4781634851345222, -0.26459441112539006, 0.4630904916716768, 0.27365884216275604, -0.41111829293249547, -0.33750690409845674, -0.37474153068665894, -0.4257527211777067, 0.19122211988190285, 0.10294982169522127, -0.2415424069965525, 0.1705313827167093, -0.4044907591893041, -0.21776138699398373, -0.1580841620882376, -0.0725903921872397, -0.3406991950672153, 0.053006673420715376, -0.30542595457428356, 0.3045681843726195, 0.014239115580245956, -0.20856529007412825, -0.21005226342195407, -0.1932796399754651, -0.08732946524724461, -0.1225956685744199, 0.04322648436267576, 0.4150707846763666, 0.44227022910590846, -0.41168316314709663, -0.061834522785090384, 0.22972088398504764, 0.031631912478810253, -0.35390057908952977, 0.06371861540658508, -0.4218286561474307, 0.3226650546632227, 0.020313972672520775, -0.4580376494638695, 0.14128354497652157, -0.3610211179955315, 0.2604121970206558, 0.07880035118928826, 0.10808441006884292, 0.30912888025991814, -0.34485357388585985, 0.08361277650028826, -0.13216803333621369, 0.2423254961787176, -0.440232117097886, -0.5055064227012481, -0.5096467347214444, 0.4398966118992257, -0.2591597056562744, -0.16140243281845967, -0.4237329101838876, 0.34894012011430775, 0.1508412486513343, 0.24316344038815774, 0.11702425302145913, 0.029996060030738514, 0.16592312915000285, 0.010265359698597987, 0.09121389074987907, 0.40986263694701, -0.2914376404554969, -0.16768024663242923, 0.46133140565455444, 0.12083679056572884, -0.04936043128781388, -0.15202163031014249, 0.10155610087977428, 0.25376057151441733, -0.46794383504421905, 0.10026457642290051, -0.060028728820133465, 0.42912554510509665, -0.11296815093221427, 0.2567690345937939, -0.28670202563315084, -0.15653181963520482, -0.03173382637275868, 0.010235721318290923, -0.4709018347054312, -0.11804627142315062, 0.48874607214834864, -0.32166103216778474, -0.12391699841106962, 0.42456837030378314, 0.4594221151607917, 0.14485429172967557, 0.47985076750270284, 0.3439997582915185, -0.44502147533631875, 0.31351859339315274, -0.043983882931025196, 0.4629812596167212, 0.030102463595439777, -0.4804934798452988, 0.16778194849302258, -0.2583509907936931, -0.06017630091627954, 0.3262113556063765, -0.24251653142767238, 0.3549428683234119, 0.15926773465919475, -0.01768953315275272, -0.4051566733309417, 0.4630684484624118, -0.13141727515475, -0.14983545305540716, -0.013859944760876984, 0.4042539847383695, 0.44808172999406376, -0.21696953394233093, -0.16665041777991185, -0.10825039429246941, -0.12275949132659625, 0.18611198556837139, 0.19014859260281924, -0.0037235065308699918, 0.1905235537190365, -0.03584184644195926, 0.34534389389482406, 0.31385729456891087, 0.4463040860918175, -0.021440216656005016, 0.33554337882332386, 0.4284030002501311, 0.3448090737691868, 0.26670388513157095, -0.2573598726291246, 0.27202249252367805, -0.2303623637915002, -0.3214097718144745, 0.3449768632414886, 0.2732868730101967, 0.362625616972145, 0.25504948653180526, 0.2929151264694721, 0.215813919251796, -0.4044605677378085, 0.46112079363369496, 0.044588102975482394, 0.11427858475472766, 0.39252845981747997, -0.42791870063246773, 0.02055247763880766, -0.16576568989554458, -0.19876361258099426, 0.37391596381833225, 0.34084589002761084, -0.21676679588893077, 0.1918535239559782, 0.2519332675062168, -0.14562000536428382, 0.34349450972873447, 0.3055549437349298, 0.3282439864232166, 0.4068200233419934, 0.10945665073780751, 0.04580625016579447, 0.19628432505490295, -0.11876591771825787, 0.2459492514905468, 0.49486565712552355, -0.26340556899255213, 0.507811842157415, 0.3226098152392495, -0.34333041052123886, 0.3033896833521225, 0.17463303506836247, 0.0563162616691353, 0.07241522549040058, -0.4718429676943753, -0.44007057471537603, -0.24218250429397647, 0.19540965340023939, 0.15477875914539552, 0.07992620859637362, -0.20735720448384815, -0.08301444872432613, -0.25308467794572964, 0.05619232621924076, 0.3437522414872612, 0.5464734009041832, 0.08352241388407722, 0.150068060061759, 0.6270937341866291, -0.09422798495377176, 0.5205303986232058, -0.07970082544583325, -0.05076482886575106, 0.5154510732100693, -0.3031487685306084, 0.03593082444109282, -0.42657617545204474, -0.1771050126444153, 0.47805236729358985, 0.34297186340663177, 0.19169381627376914, -0.37590295274096297, 0.45985642313693975, 0.3269125420652083, -0.12727925132052084, -0.0811510352982111, 0.40147847965694416, 0.26209200925341886, 0.5260594793057991, 0.2968345947091118, 0.3249579436080883, -0.010031376606299608, 0.3987576342387771, -0.36763022308834453, 0.11925397038457357, 0.23371834871782204, -0.318606725745597, 0.031533759760708144, 0.3397165093186193, -0.26106453922984635, -0.10479622353967108, 0.10598814453195204, 0.4303766168456074, -0.24343994314249895, -0.08052596868866509, -0.42202168967133047, -0.06819845222617334, 0.24664643811714881, 0.116259427891787, 0.3986031180496691, 0.31176625452936946, -0.1216264446153588, -0.1971287523435647, -0.35503607698967105, -0.12271249281623098, 0.4620095649519487, -0.20447614396285943, 0.5833466947160888, 0.34156950079355275, 0.1352280107500759, -0.4085681983410337, -0.4095822365870282, 0.19161019209554786, 0.5455240480478822, 0.3467580309315636, 0.35861698179185425, 0.6445799745351871, 0.09653001461761648, -0.2838193070701917, -0.2819340738278003, -0.008397212473820595, -0.23873195736856015, 0.4968214588169734, 0.44083487760291823, 0.20428018497130604, 0.3744837677615119, 0.004695926356015123, -0.21599933165592733, -0.10459726314965268, -0.011533785929117722, -0.11410419054141284, 0.39101832539973974, 0.4280803959449199, 0.13219482486077586, 0.42435775057518516, 0.5642204152472727, -0.17115988987282305, -0.33011265279528795, -0.2323423158316704, -0.2726489109297996, -0.22413364683951872, -0.3438981997901357, 0.059524624417730494, -0.11555379383277548, 0.3566938969100692, -0.19515409228887898, 0.008825698683250515, -0.40007314505027086, -0.26636516947435773, -0.0875867347463586, 0.0154411581929975, -0.12847281755086962, 0.3024414195796974, -0.3219987576449269, 0.09320003327176751, -0.36546375270196785, 0.36200755733058443, -0.0699951142050123, 0.3529584334031708, 0.018626505308625182, -0.142547831587029, -0.16860392664481713, -0.08477359988732061, 0.23359403419098393, -0.17086606185971376, 0.4929234097948395, -0.34746046055878776, -0.26348953416087845, -0.3758676005742819, -0.22283929771886177, 0.38020868047106515, 0.22766783528634613, -0.3512672871929508, 0.04361287934139732, -0.11515525069886166, -0.0827756984499617, 0.2860639935379618, -0.33605708804084083, 0.4663547253338958, -0.3616484207566851, -0.24879460959487457, 0.4642197816493912, -0.19962357929155627, 0.12730299818163016, -0.08238107378115456, -0.4539814656508916, -0.2945748992435825, 0.34765649294475365, -0.020228812813000627, 0.48358833552393227, 0.5010302135543324, -0.009331323643480915, 0.535576239023568, -0.1926372302551066, 0.34677973947890156, -0.20080313626546614, -0.02206276439414265, -0.27468092270282307, 0.4364482781553837, 0.5007608122783749, 0.406760847726367, 0.31221002556883026, 0.3180304918120269, 0.29499187782750114, 0.09715008912674696, 0.5088924965093494, 0.17741071916644824, 0.11515571098034885, -0.248538205420514, 0.09305472179453476, 0.3596527648433675, -0.015560531759876817, -0.08778837841073883, -0.03644376556621731, 0.4670768407232347, -0.47695881506863874, -0.10270359629866872, 0.4816130245988909, 0.06998836319075404, 0.5510850993070515, 0.2143822208192726, 0.5338834374481005, -0.4535585936419193, -0.5117779912621011, 0.08527332575427524, -0.07200359113519374, -0.08919435422747185, 0.013473527285687263, 0.5463804528856252, 0.3540287492441323, -0.07130899569659278, 0.2675208378551225, -0.16925903843507728, -0.15835431123366792, -0.26204876879397637, -0.44649623451579995, -0.2595496556523334, -0.22612359919825395, -0.11763256373168918, -0.20776691993396856, 0.07793335803136214, 0.4207435756101796, -0.15013363200735227, 0.17442598787947164, 0.25795101037334217, -0.41635160195374543, 0.1775932223843471, -0.26644519596354416, 0.357190041755332, 0.12816962708893823, 0.1656595836790877, -0.5112803988522988, -0.03192091841601153, 0.06972099587935682, -0.07734367641698939, -0.1449959268063156, -0.00031834854146460984, 0.21848706861007913, -0.2426169789986793, 0.18352416728916487, 0.24758290561470853, -0.40880701158841487, 0.2420299280154916, -0.15039376141121719, -0.1864691609754763, 0.16001126643137828, 0.1794341872145635, -0.38202639649886094, -0.4310870219173797, 0.47683669803108164, 0.4964954606975225, -0.467075027729456, 0.24044116609325833, -0.39387576773052985, 0.012411211489801968, -0.2714334673329248, 0.18531226845768828, -0.12037227365588553, -0.057059478367021514, 0.23919078087384216, 0.1401688084107507, 0.36661495917661613, -0.4384877944732126, 0.45483696624358727, 0.45756544699197454, 0.30879491121181046, 0.21543685582288857, 0.508980049596106, 0.04806503743734197, 0.046628506051777485, -0.05240309054525829, -0.26299092115009837, 0.2700431029323153, -0.4078303645322173, 0.4161926073166745, -0.4318876022401612, -0.3686232775371311, -0.14613052613399535, -0.0974165974805039, -0.45972396208209937, 0.45307622843887274, 0.39542728696693596, 0.28268559700200224, 0.2206737266080328, -0.4834145827624072, -0.2779460061202315, -0.5722953584846721, 0.40095818928862587, -0.24048936623213427, -0.20640352114954547, 0.4282262454664549, 0.3598744110323722, -0.11300910265350098, 0.015181334280393161, -0.32832746174109206, -0.019123875995445863, 0.31893812982401376, 0.38728292152045823, -0.14236879207115027, 0.11884677017097818, -0.07722195344784594, 0.2739134849043702, 0.2341848679437747, 0.281930930264338, -0.25925437997570255, -0.0677353948779537, -0.18350785828881558, 0.45764171249731606, 0.12477912434411205, 0.25012319397774957, -0.18604290802909076, 0.1220155378421023, 0.2738269484758682, 0.10638539732567928, 0.1855708457094666, 0.01680678772149725, 0.21995172743160527, -0.10081535563539236, 0.2775798730565732, 0.11683738610401871, 0.15445838564674655, 0.00015592018821708367, -0.018319387928883088, -0.4745836866085721, -0.2937767175318098, -0.08617645414096343, -0.052029683161015014, -0.37156217907987477, 0.119166102654459, 0.17258283389768414, 0.3788904373808605, -0.2815977481763883, -0.045658279906671484, -0.0503023133437943, 0.36623434336729715, 0.1550357349529036, 0.18453691043421802, 0.4586976864201588, -0.22717329410006723, 0.3462932625279627, 0.24514038183350298, -0.1785811030885058, -0.009385099646513616, 0.07231348910107814, 0.5498370004439855, 0.21142861945972888, 0.15497287501001908, -0.08770340003767418, 0.48446595492163685, -0.05590494585704502, -0.41999789095905543, 0.01993177478657811, -0.4877065261201012, 0.30109948209514625, -0.2660078813699009, 0.18943496829500533, 0.47889696135759996, -0.07879069004303774, -0.06885749506290362, -0.24371760529242215, -0.02399942571393987, 0.11099179019820989, -0.0679923052058823, 0.19554164612879013, 0.38245336311847594, 0.12729864984447115, 0.15793404196408453, -0.17110264855568658, 0.2067424331684519, -0.07152902831156208, -0.011858735164763124, -0.01837356875295727, -0.3011380523937423, 0.31762824949194823, 0.4868479760865757, 0.2619702526000188, 0.05684643919509495, -0.11178730066896454, -0.048467499683218306, -0.14931389940640727, 0.36704707138687576, 0.29791232454897737, 0.22750833143160815, -0.21173613107759873, 0.2682074631489489, 0.18963530010821464, -0.38772304314372186, 0.11741586939154025, -0.15222642784460672, -0.1746004479715622, 0.3964480055936039, -0.27957884144290707, -0.2034691562792411, -0.04881489207433631, -0.3044984511852547, 0.2691339463062403, 0.08923373706976448, -0.2887885313047713, -0.3862016327757199, 0.5256100981938333, -0.39150503815095045, -0.15038557202953873, 0.15285983230998768, 0.3988291505021239, -0.28023803292707017, -0.006682334393214881, 0.1887172371019266, -0.38464808926616917, -0.49521857567257516, 0.2641691962070082, 0.04144064327770881, 0.36359836469388707, -0.14618925496381857, 0.32170606288976555, 0.3123333507939394, 0.21740671215088847, -0.06162748670053175, 0.07399831569818931, -0.25669492059298116, -0.37600920278737776, 0.02402714963836285, 0.401548559059358, 0.3084416255321159, -0.3672131554821975, 0.20021754618669377, 0.2459779762487291, 0.03980300557271812, -0.30530166033961603, 0.542608326339876, 0.003553379559097435, 0.35140231848746195, -0.017725474297444293, -0.0996581537934629, 0.12455481293539086, -0.39860069802081, 0.01903322865445039, 0.2697224823298426, -0.2176314074222825, -0.3050290696605497, -0.34771491420367495, 0.47626745711102114, -0.0875111198597054, 0.3219273232734209, -0.062017599581665084, -0.2980885675499778, 0.10037010689598522, 0.28600851533613625, 0.3334168061600875, -0.06135385801319525, -0.24758830801683465, -0.1723946645264016, 0.4452894812867564, -0.2214238776073323, -0.17284662406570886, -0.23623095549443973, -0.02202002736220551, 0.45558172603954333, 0.522843511545801, -0.15369201055503798, 0.25144223291880413, 0.12299401320054586, 0.007833861868122155, -0.4909315027821295, -0.3559922965366616, -0.21666344004894686, -0.27287799789197575, -0.15251320994154202, -0.12772664288121374, 0.48472078445493516, 0.20745629081106343, -0.040733354016736945, 0.4541329976576054, 0.03143118213880158, 0.42678047113301587, 0.47504403697552944, 0.2191414860628851, 0.40659449730850816, -0.14967478485163338, 0.3410261377087691, -0.25913126637703693, -0.030412927703575204, 0.40100089151317275, 0.46010077543810474, 0.4494499407412842, -0.15219998996285242, 0.09138854434067038, -0.1037881055990646, -0.059108863835417684, -0.021489152298036007, -0.1209897324883594, 0.42449675573541834, 0.4594358325541112, 0.46453553873403414, -0.1160570998395404, -0.43976814571371425, -0.2376745454069599, 0.304556600104684, 0.17450966866364093, -0.07885623324799396, -0.4064013827631008, -0.3084168790994568, 0.40241394798827534, 0.25944230384562356, 0.13108480856069382, -0.12347625089465093, -0.0018131320901965619, 0.4029166392592907, 0.32159973712781287, -0.15351551686314127, -0.33645384703462183, -0.23710138674968967, 0.06701201574980176, -0.17791321108639613, -0.03853138517306473, -0.447607610014927, -0.005752222718974027, 0.2948137428122398, 0.47685721092409844, -0.4789799009511284, 0.07724156954421853, -0.33542787678202457, 0.10914346400071166, 0.2676907475232806, -0.4438616274019145, 0.3460643411403367, 0.32445838981067787, 0.010355190817013304, 0.18179442468923512, 0.346298802781956, -0.04576653926903995, 0.3760456267008625, -0.3949123917182216, -0.42417288393009434, 0.35162178823155793, -0.015118997844497543, 0.3007911430942534, 0.2994389180830623, 0.4973464136735902, 0.30157385056774366, 0.49441301886221695, -0.3010281666461141, 0.08860124183652397, -0.41369198566373855, 0.1392298432929298, 0.33772416167136343, -0.40908638122060165, 0.4275437694046177, -0.2229223418052337, -0.3259347601457466, -0.3247254305448817, -0.4347396458865209, 0.06715216087536979, 0.2818206604957012, 0.15547874714524046, -0.3337472998336858, 0.45004161728546455, 0.09629132290453424, -0.11505725576527814, -0.15614323652975193, 0.3711044147502002, 0.06698768814869543, -0.11422635667764217, 0.09303550498030551, -0.17371185444170453, -0.3819117646714935, 0.12369545839899214, 0.2210585063656697, -0.09214177952429263, -0.16855933088197422, 0.2511453802135921, -0.011487374445479478, 0.062149998823294694, 0.4616408367861505, -0.25249976352973896, -0.3365536027970494, -0.16997424517954485, -0.19819896561861594, 0.3629878245296895, 0.3876295951068286, -0.4844007974755775, -0.45317176640267387, -0.17803243938758095, 0.25265661007448204], [-0.24013197391517527, 0.49375911079829937, -0.4365730432173829, -0.3635712012438018, -0.012890880680407335, 0.3498388972359765, 0.3852307423658162, 0.007962098438219156, -0.20562086745197772, -0.33791153254231865, 0.01349215806979287, -0.47969607107200707, 0.1019491821478965, -0.1673487234140567, -0.4432213681865754, -0.3907377159358034, -0.48302600403950724, 0.07338054087758061, -0.1805520681148285, 0.4964426185438553, 0.20956125110709845, 0.284221241515053, 0.20835382723206886, -0.33471862545986064, 0.13766740208057648, 0.33152236687778003, -0.24987240472372874, -0.45496447670926, 0.49222284981452014, 0.37432784054402457, -0.21363610269618594, 0.03517599052370124, -0.3428482439476278, 0.40431327393120364, 0.07850638563342416, 0.06939822609251411, 0.3323011536670496, -0.0016643637517002041, -0.45608851273563966, 0.17945449034367608, 0.2067781840774976, -0.14317255798639517, 0.09300871787300415, -0.09822591967111226, -0.025216395033235736, -0.33692577566121806, 0.10098916188074372, -0.28890374840504285, -0.29603520723476506, 0.368718723734495, 0.02673747164652307, -0.19151174655765946, 0.08348360290133872, 0.4808035895215581, 0.2822565726946704, -0.4178008090438756, -0.19898520703821865, 0.0565991951829401, 0.3601829242184763, -0.04601006978258737, -0.42784359673212435, 0.28258474566475145, -0.48662570722475107, 0.09823801456417025, 0.3352445804219708, -0.23515945537668792, -0.15917661991807353, -0.2945954999966416, -0.3533574757389018, 0.4309893322046504, 0.011891988033266573, 0.0780876962167518, -0.07805973003353822, -0.05729229796268324, 0.05451879386409862, -0.3931261343624698, 0.2659499794589443, -0.2837136725819849, -0.34744695460499914, 0.3893306571290947, 0.17217829240261184, -0.03798180004044316, 0.1403640247724116, 0.1530233104802513, 0.1397389985750781, 0.23194035583143813, -0.38683910667026966, -0.15036482091957137, -0.3729798643043267, 0.15751222849993585, 0.24781739057168994, 0.3121112120087212, -0.2616614370088081, 0.09918909326100052, 0.35830515712372035, -0.2094762966514207, -0.21183271176070168, 0.3706900991804507, 0.1990464899577883, -0.3713090295461335, 0.42957690485547384, -0.2462027826757905, -0.39888957887269516, -0.3392074177150419, -0.49101269405627707, 0.21812836667837293, -0.4241274322702434, -0.1605720389318753, 0.4233882011993878, 0.36715693597909826, -0.42271233450983825, 0.08195599055297631, -0.03266053230984822, -0.14168323018718065, -0.011767655413716493, -0.21289809105201074, 0.043045805104989635, -0.39347855228622436, 0.3319270220543763, 0.17394152717224207, -0.4359203238517074, -0.1537964026876281, 0.0634344204742529, -0.047748595862957405, -0.31125351953224534, 0.3981647710665042, -0.07832004702235713, -0.16997168196419873, -0.4428265058951521, -0.4121647732184619, -0.16813967417533554, 0.29169664389543937, 0.09452847522239338, 0.14004454223480922, -0.24491464157937612, -0.2867477503041543, 0.2146760861340523, -0.4221749575120417, 0.32638916333607704, 0.23569035724406862, 0.19172972180551084, 0.49799119222695964, 0.29206980474794464, -0.4223059864084279, 0.05372706819719341, 0.44518308759822317, -0.039240549718226526, 0.27597368458045635, 0.2383477334292396, -0.2598896912020396, 0.11062216391247051, 0.28637041886574494, 0.1921053094441843, -0.11264628014256581, -0.25010977348676533, 0.26475502120118477, 0.3939994511948005, -0.12414176133313827, -0.2459973460441322, 0.4078776241968863, 0.22638495435444175, 0.3721195543308271, 0.38342267202522795, -0.024316198068437038, 0.3279051856615999, -0.05813982106834954, 0.29482679611467466, -0.13854344407507557, 0.4351576719203081, 0.12022874521044491, 0.13755691403703885, -0.2904036676089883, 0.16505994720720676, -0.28706411607715465, 0.23560880885884602, -0.08308900275900731, 0.5070645531483219, 0.14426243332227193, -0.3390530303987878, 0.024343034035340196, 0.25630600271674353, -0.15559236086527806, -0.24991030742638645, 0.3727689956054055, 0.4794858059487088, -0.2531522458123066, 0.5669109358114681, 0.43302457922814475, -0.09468419278333334, 0.09254255173155887, 0.1381533649204526, -0.32832357748809315, -0.23045174731951903, 0.31326051223532825, -0.18325450132976995, -0.4392704590221193, 0.18987707176711666, -0.46086948862059873, -0.011839971542325186, -0.31666182106659785, 0.014903859228043681, -0.22305675102424535, 0.4929893113996592, 0.4529350752033867, 0.374148060836827, 0.17343304678121566, -0.030539984669969662, -0.43517055829125956, -0.40535450084980695, 0.11013252931473835, 0.33184598757188943, -0.15537918967265088, -0.265398740880876, -0.07758993510097419, -0.32724627845646137, 0.37443029468241407, 0.44631961546826043, 0.01196250431758085, 0.14877350079214408, -0.05470937622248547, -0.14834425840210003, 0.4187118065369073, 0.4950945496649026, -0.3478241629117909, 0.3193438509033971, 0.213686910926567, -0.20940260190100593, -0.2865473421538107, 0.23377758842434332, 0.024719459170305113, 0.47571622725274126, 0.055457842633279186, 0.08668427765708689, -0.39681901394527014, -0.1485809918519406, 0.3290597020525507, -0.5522897734349425, 0.26094722934141407, 0.1373810934390137, -0.5188100440248402, 0.28357820354140467, -0.5005135638345032, 0.19149830931891343, -0.028522518078292244, -0.37311427806569986, 0.21815399905413893, 0.4991924595421706, -0.4120060983606958, 0.17727404446067577, -0.09566795184843699, -0.21951070344636284, 0.13351653457346468, -0.49181418359010254, 0.3221462627547164, 0.16180892862864277, -0.26156155692188693, 0.4210479641613921, -0.19775793299227512, 0.30688737135297833, -0.13954384202714748, -0.356138509016596, -0.40238801713021727, -0.22348999219521387, -0.18270519119623416, -0.39709890143642984, -0.021774061628935342, 0.24283467164770706, 0.17201956506729796, -0.0446904756836848, 0.4528959530642325, 0.09381215865535407, 0.4976672912760346, 0.12807121393689685, -0.05554374455579003, 0.38052222580605066, -0.3857275252179334, -0.2585715110521295, 0.40436785378010975, 0.25979369828990506, 0.0566884993921275, 0.11388836106256683, -0.13714142649752975, 0.05348861120147903, 0.1382068377392798, -0.19552283329979228, 0.1166010807499144, 0.32881132595963536, 0.2028210720948974, -0.023408472395934105, -0.25353548247787866, -0.402765752606365, -0.41957686721145765, 0.09391648471458555, -0.26496273353865996, -0.38844032063241835, -0.12365708073811389, -0.27426919589522475, -0.22240109957404172, -0.22241422436637284, -0.40464478607536886, 0.4326433103349218, -0.26930518384443464, 0.46718535475790135, 0.02575003530158875, -0.04835858704600454, 0.33729289841467963, -0.35824754230820494, -0.17533750888999733, 0.314515054530197, -0.07781361538135878, -0.28959202967027553, -0.1350744888781218, -0.4907836034096068, 0.06628408223181079, 0.09819896153281131, -0.12655028768614798, 0.3649966072752712, -0.12204300091609611, 0.11875423356489145, 0.04155911138432602, -0.08822380231289177, -0.3522603490735832, 0.08549555401296624, -0.06252592757351436, -0.40809093848226646, 0.40916193907624954, 0.2959622477092623, 0.15782339337685639, -0.3993420524051035, -0.13550979376072045, -0.27485900440654504, 0.051166491480962424, -0.42314968841066947, 0.3038829634888208, -0.2691198285688239, -0.40254570904492604, 0.43734899306514774, 0.30633630642618104, -0.17875253485884615, -0.08631391702119587, -0.2655264065763713, -0.20682951392007026, -0.24063929529263495, -0.033179592667072225, -0.3013812452594376, -0.38715983309673935, -0.24820177130338733, -0.05820220676623041, 0.3312477685453686, 0.4140297811222582, 0.22667106545903662, 0.23452191652485288, 0.0412071003806861, 0.3107709779526646, -0.3492457512065698, 0.032076690341509013, 0.28309655379686705, -0.18600070151553838, 0.27061089959288065, 0.3850487966624605, 0.0318014956777586, -0.22511188986845856, -0.197007010802816, -0.37293628412249846, 0.36832940668698466, 0.07105259188654345, 0.14637123292398316, -0.21009311161381056, 0.25495982217533736, 0.12133139036219642, 0.1754126383646887, -0.36021947060606685, -0.4395248531049497, 0.4077502940436729, 0.20632362251526892, 0.3084501210705035, 0.4421128010636434, 0.04370794337599493, 0.13390104535325378, -0.004583605766929389, -0.026873035002255068, 0.11078417204354903, -0.22956628613315766, -0.23591096233680772, -0.2029843593967872, -0.008898590520119093, 0.23006069313487265, -0.03230507620489231, 0.47605483032153284, -0.20550915913518292, 0.4312124483994994, -0.01190298169703674, 0.15475797752724274, -0.35592676237445076, 0.4618438882533227, -0.0503860189252566, 0.320047379436606, -0.15550611987768428, 0.4419146043258746, -0.4032561442675446, 0.1877218531582534, 0.22777838719944535, -0.04898469458834437, -0.29020635346914386, 0.12957021459786391, -0.30357481703286826, 0.3482672577724792, -0.36081972220934505, -0.3721049929461582, -0.0339523442662601, -0.42802601680939195, -0.10641297992857209, 0.2677739194677188, -0.11206118895389455, 0.2844527564255811, 0.16587628755448952, 0.20583286259005557, 0.42883404543768683, 0.20840661969462332, 0.16790936359408315, 0.2037076889789643, -0.3871268027023639, -0.46982697367648674, 0.20924545851791573, -0.18389089175738732, 0.2235220080227327, -0.21200271658643127, 0.15752029037929338, -0.09325821384451562, 0.42062680811311065, -0.22561262067943183, 0.44801701917149683, -0.10744468150520013, 0.06706441845437391, 0.006309897233647132, 0.49199694107858305, 0.461113788688092, -0.32594789263735985, 0.23310447062404377, -0.07139589964730393, -0.34261592601754237, -0.14704638059923517, 0.1554497110550422, 0.48107325171547, 0.44477064338340694, 0.47171834925231765, 0.28314229468847824, -0.3388281785670273, -0.2927611527468792, -0.4911226949912578, -0.1403585778654789, -0.41612421417742673, -0.3693921597381094, 0.2767692857597319, -0.08806587404427656, 0.16397582579486034, -0.34623202869565783, 0.334384242267125, -0.45243477759555584, -0.4410203599441389, 0.4238324781402752, -0.5162329672964051, -0.2868919133811724, 0.4565166314434578, 0.23760467552531858, -0.11271364084278118, 0.346842313216936, 0.3283230253666097, -0.42407957250116424, -0.0785565727506272, -0.1760414150662431, 0.4222776989760209, -0.026270036099710382, -0.4329992906123517, 0.3474001401149431, 0.48120675166176174, 0.2574869141810585, -0.15380054111155395, 0.38957188384270547, 0.14052867526469232, 0.37657643622263576, 0.13967339598906225, -0.3820665950933604, -0.4400442565764182, 0.25136016273662753, -0.4179193028656853, 0.02901211639316183, 0.0748987444510732, -0.2248905964988931, -0.24269906199972469, 0.2965686271185153, -0.061663837913158645, 0.13627396080257015, 0.48970668430697795, -0.10943963324763463, 0.1769093106908248, 0.1180685155529734, 0.16276087940020917, 0.028191238595356466, -0.06979057258182476, -0.3350536364146639, 0.19963898332824825, 0.3964478528050409, -0.024625549285100967, -0.4627515147378457, -0.08264298031988082, -0.42213432140442836, -0.09034030349313028, -0.4102551467804148, -0.2049606307565961, -0.010786644363886386, 0.353095732526676, 0.16599001189529713, 0.15230520563088698, 0.3235358447437341, -0.4508552619960696, -0.18896999552552537, -0.31914699730878654, 0.19602048048959564, -0.2579453420464744, -0.028810760793851895, -0.028145973289862437, -0.24811616414592147, 0.15663858271777314, -0.10635206342792537, -0.18353719292462392, -0.24722989406511908, 0.38562410593116286, 0.4694020012359945, 0.3678433885545084, -0.17496194916048735, 0.09673870078313018, 0.1352521570527726, 0.19263748617025822, 0.18176425052117498, 0.47239251155197204, -0.40050409296071443, -0.055794641617787355, 0.4320002661263272, -0.374848610009654, -0.4970942335204147, -0.48230768280351954, 0.2451354577426437, -0.16208036452307173, -0.4498720828612937, -0.03666149637388325, 0.3852750657653158, -0.30138796395593864, 0.35101153233029797, 0.33086554625533515, -0.2696282130272454, 0.11146027765906256, 0.4733253612463292, -0.03204219266734319, 0.06238604477765027, 0.3368683203651762, -0.40539639755283463, 0.07729933723135245, 0.0683070339760522, -0.16910664678015974, -0.44511545757570337, -0.04079362403658948, -0.025668201446198132, -0.07952619068235321, 0.3942728129534474, -0.3672967891241262, 0.10618112747205148, 0.28365176130357184, 0.08818546103580951, 0.456667806985687, 0.03251269415204379, -0.10982044221939036, 0.36525237313293923, 0.07487453428096737, 0.4875693794070463, -0.2898210279658117, 0.38134849700615175, -0.2889513826355992, -0.027174414886471567, 0.22937196766253565, -0.456643799815342, 0.03179618603119113, 0.1574436412486916, -0.36961594140617404, 0.26461714781130813, 0.07689273994466395, 0.42502222388482647, 0.3791622654158757, -0.12344673597238354, -0.21562113709298192, -0.08396427426054409, -0.14867868890155106, 0.2820239733625709, 0.04320702925375468, -0.33735387375843373, -0.3458834670947112, -0.18280281068427348, 0.38813437072536905, -0.21037884875116739, -0.31541171693006054, 0.06066274926779631, 0.2563572511556217, -0.2008608137826933, 0.1007802345532967, -0.07357956532150067, -0.3573135026634174, 0.18666092545910706, -0.17328275716937136, -0.5058992794214315, -0.23179689413777696, -0.4323947484081598, -0.18266759067769522, -0.4432204834028482, -0.21780959365957214, 0.26115925879330765, 0.21104280465281067, 0.0228793086452459, 0.4345745099590085, 0.06002409099777875, -0.2249935868879814, -0.4241260424464886, -0.250109095044508, -0.3103503185623752, -0.2681448647940156, 0.41960968112834995, 0.43674537048298423, 0.3456629016825612, 0.2121564287101549, -0.06567106133042094, 0.27250906690921023, 0.46341752538812087, 0.11550916277769956, 0.022384806878428472, 0.056377071327415006, -0.3315626655881567, -0.1772291904598409, -0.3863895130091581, -0.28974737935379974, -0.3117915902557222, -0.12412196605587687, 0.3794453522130856, 0.46230781308301044, -0.4147418600293302, 0.2973525555838973, -0.2544110562655285, 0.09999769240969936, -0.2663914877891476, 0.4330458280751133, 0.09415132612921803, -0.20885857161657004, 0.5282972596708925, 0.5404782767446153, 0.3038632182095591, 0.138788610679154, 0.4938370311516746, 0.2618877410035705, 0.19976921164432695, -0.1769107920733454, 0.25133108473657056, 0.1758390159501813, 0.34439534654831333, 0.4369387922980382, 0.40028879627563135, 0.47067247103067233, 0.1520217464031873, 0.08005995243191236, 0.17831835555557923, -0.12158637425210801, 0.25274118539826046, 0.32470980524539517, 0.126026770440529, -0.37146583737033534, 0.22317687809318287, 0.03617554893398045, -0.3620107713417814, -0.1650018700449025, -0.3500255241576295, -0.004297304349629946, -0.3657897442946412, -0.11153087369878836, 0.3721899238354769, 0.5198437541735051, -0.38177413095547075, 0.22076489728873117, -0.27614224232172063, -0.1881821096738719, 0.05620097693883674, -0.25395348034301124, 0.21351715945167693, 0.31756981444042365, -0.189916223325697, 0.22651928252066175, -0.3047960478075035, -0.17314873408044434, 0.0332706374273275, 0.019183869803442576, -0.05061535902960667, 0.3364080851668283, 0.18542724316943193, -0.44579009095075306, 0.47394009545057747, 0.08021618963498467, -0.18887636445812994, -0.21708905888910263, 0.29729808262014357, -0.0904061002875348, -0.41669041845200677, 0.46077189574542565, 0.34768260835067133, 0.4635930055023491, 0.03911572609118831, -0.03601992237785089, 0.2311032857430344, -0.3041720962103737, 0.03308402702573409, 0.06791819451915469, -0.42523557100311155, -0.01484054569914315, -0.0415998085782488, 0.12708284890125812, -0.09127744630760708, 0.44308001763735594, -0.30871037957593944, 0.1825707859706373, 0.1845717887828787, 0.28815304610653003, 0.1644750789468079, -0.4822986081035955, -0.39100070570113854, 0.16032068246723463, 0.4381275233285111, 0.39493369583435584, 0.4207406279906613, -0.37446906378891, -0.0846403402485942, 0.24028765621419174, 0.2699195459672754, -0.24871070101752973, -0.1601993007015977, -0.11419956009415656, -0.14991632620274262, 0.029561181649399065, 0.1273806945267911, 0.12925081482072662, -0.4423857329979294, 0.33571791500339493, 0.06449008359487982, -0.15051735834623461, -0.15882262270271175, -0.16964229590088273, -0.293538206375751, 0.05193138007348963, -0.3962604109168967, 0.3277683173546908, 0.07270478918459733, -0.4998592908680144, -0.06921105136164873, -0.14863785687395525, -0.13206953817156053, -0.45577297793599847, 0.28060803975608095, -0.17859881705552802, -0.3064470625384469, 0.43822313438578125, 0.47840748819533685, -0.18567414075413852, -0.4496421803796865, 0.2758195748261679, -0.22697048352632038, 0.12587221456971867, -0.13777320158161044, 0.32133978770565585, 0.1391837589408274, 0.034716343312786814, -0.15146038136532075, -0.1692842250855353, 0.20702600842156327, 0.16550879643579874, -0.08480405848881267, 0.07488514727074613, 0.4513889358833042, -0.043626913798788136, -0.10756125951861095, -0.3408010562082474], [0.17897784679182094, -0.4855509472051528, 0.11313424059395982, 0.2093791242200207, 0.20634891016613488, 0.2895316395506149, -0.463107877337253, 0.057489753079365435, -0.49628910532096404, 0.37188819235665727, -0.46170602539596894, 0.10563752831479756, -0.4283553640446801, 0.32474514243513875, -0.0482283249818003, 0.41611277397703994, 0.08850740113471878, -0.27501206940620726, 0.028745687190765867, 0.12103631821460148, 0.24640052191250872, 0.47806391952595706, -0.20247278894437992, 0.40749920323310784, -0.26538037844273976, 0.30434139622979806, -0.17054576839359226, -0.09115353882096933, -0.22407502357356668, 0.4869519317103521, 0.4661856175054828, 0.4733870662269263, -0.4824826514070142, -0.4843247790578261, 0.28775463038801563, -0.014719326606515981, 0.12479972367001657, -0.3351638948126431, 0.4538455013073775, -0.24141636791713328, -0.43816849516782874, 0.162539477574261, 0.48382357494754263, -0.24051820942712082, -0.156696716895723, 0.10621451543359177, -0.3027930653937865, -0.19219285150496013, -0.22337034937162625, -0.3265221675249914, 0.37089311397189273, -0.38528250799137653, -0.2822424003193673, -0.21490220532317905, 0.45312534108456537, 0.23413482512615613, -0.074331431686122, -0.34206663004830706, 0.4343576474092046, -0.3988068658138626, -0.2663210851525938, 0.024501678600294174, -0.1669768634807024, 0.14267049727356895, 0.10329363375117995, 0.0511182615245368, 0.428389015393, 0.21679099540430374, 0.09597627644075452, 0.01071991927974709, -0.2675846987306882, -0.4109565769619145, 0.2306349967646682, 0.37730614537299545, 0.15858314004114069, -0.38469299835618265, 0.3372121714666025, 0.3386380974888465, -0.39308569294876344, 0.22966586743727357, 0.2828884513476452, 0.07445458230922664, -0.13668949800313945, 0.4059369472692437, -0.06264616910617171, -0.4183895945846018, 0.2337457511356863, 0.3784022401912557, -0.39952577618209884, -0.12735483899460265, 0.05218036094022469, 0.17492349160431755, -0.13558215778443408, 0.2928042821885373, 0.39554895572535537, 0.3055883428400393, -0.27833569328993385, 0.15781122249080376, -0.03358979553806065, 0.24111696369283034, -0.1625541818996093, 0.06826719312230771, -0.1510609407927304, 0.04783119370155898, 0.022443760146408157, 0.492096855097576, 0.3987756691506277, 0.2187346777310235, -0.3318943991907247, 0.31004918472519727, -0.0875980832099672, 0.35426855582540806, -0.3075477528874384, 0.4375446860053819, 0.059432622142683966, 0.16691257454394925, -0.18901825139839096, 0.015132212914521954, -0.3173487780710896, -0.48387765770441066, -0.26972320688573714, -0.26036122379196286, -0.4904370195232467, 0.5021942628993735, 0.07535095056433143, -0.17235466183327375, 0.3179787436405974, -0.14507666394943064, 0.40569928288652113, 0.15426637647609623, -0.03483473357249648, 0.05275101830257879, -0.26031469787821165, 0.4111626538521796, 0.32112659570943314, -0.3807474123809446, -0.19871604390072975, -0.39221369622078806, -0.18641574652284554, 0.4682221251890333, 0.18959811738694532, -0.22330523835381377, -0.41565320874917133, 0.16766414329604185, -0.19429357004048908, 0.3911620986544298, 0.268837919997525, 0.01693445579608565, 0.2650822853573715, -0.030979113037945195, 0.06899882977941894, -0.39192938049364284, 0.4757730908327535, -0.4021434514342599, 0.03323997245184098, -0.06107289969394513, 0.34541700748857107, 0.15036416261867375, -0.29705226954183983, 0.35057359520544873, -0.4225222265367644, -0.33090858811200713, 0.19874680566573785, 0.3019957280746718, -0.163173940207851, -0.3810999045704037, -0.46154573116934533, -0.4736739840660512, -0.10521749668641833, -0.36328948953786766, 0.20764516829270507, 0.06389262413204046, 0.4032461059716705, 0.059639056632237564, -0.027711730808934038, 0.15884312119103403, 0.12596660820498007, 0.16402271613875036, -0.33134155490698897, -0.42731121128674265, 0.010302310898167775, -0.28979137216464507, 0.33617390531241265, -0.03725856232482617, -0.5056194345954172, -0.0026936971754799037, -0.12823634274609863, -0.035195523287954535, 0.032038666866344316, 0.36840425373997304, -0.4464425308167804, 0.10352795161104243, 0.49956806921885455, -0.20967204248573093, -0.3888393131610585, -0.020481208523143613, -0.30499306332982257, 0.4681503233970492, 0.27771475593268513, 0.25773790488700027, -0.332248117350606, 0.4409026036123812, 0.47768771753016026, 0.3119907731452472, 0.37484750715910514, 0.3090156493065151, 0.24097202531263523, 0.32187852548617446, 0.38497585251009775, 0.543054283348959, 0.5689309528890194, 0.2904366199782628, -0.19428285302905576, 0.44262529358615327, 0.1813239513390288, 0.3211363207760448, -0.3838538285099447, -0.19846135235748383, 0.26527791067797707, 0.07222693233185584, -0.2118703380964895, 0.4448299827109256, -0.28947335451763584, -0.2061460092426141, 0.37206238301976213, 0.23769197117212282, -0.3165615990533324, 0.3411664761605452, 0.49491631270314285, 0.34693119753396384, 0.15708765695985866, -0.05726558995422376, -0.44657626534166184, -0.3454411534300193, -0.008003800680171333, 0.24270498046932876, 0.5857156315402715, -0.34435303391988875, -0.2517425063763737, 0.5086899933868902, 0.4071686892213335, 0.5876942404515422, 0.0695589033099716, -0.08053032640476442, -0.08031635945718228, 0.44029564727863935, -0.03350548010349545, 0.04968438056632379, -0.1280699020283671, -0.4257202874452042, 0.05152381323911758, 0.09498333144054882, 0.21156791694000965, 0.02289703490269776, -0.38929809718571556, -0.501765807216424, -0.14682664597744466, 0.5085231930929763, -0.3769831509553725, 0.37768128415776897, -0.027363154103547043, 0.3437905263413933, -0.23356452143438503, 0.26017888650856286, 0.21723150288477872, 0.1066011443730241, 0.5088190597992812, 0.47152078945259657, -0.15001322628969688, 0.4720250371359559, -0.022553456217726763, -0.1680417223592833, 0.19057648751460426, 0.3809545969185807, -0.39770877512173824, 0.44574250350270006, 0.09994668010028446, -0.21452733085618036, -0.29153997455065234, 0.15754980260773133, 0.4536655774102577, -0.3775300901420422, 0.49514372628653625, -0.04126042687435526, -0.3481822506939977, -0.1890648508712155, 0.06086498888016468, 0.14375920927488303, 0.48279281680026387, -0.4000422085305015, -0.40772424766914195, 0.5172847191286666, 0.14324958502303903, 0.19094948041333518, 0.010640109068639957, 0.11402948780712023, 0.1021800093406541, 0.08620483203585368, -0.08226582537837998, -0.25310491761896836, -0.023833353250242724, -0.19091430094021608, -0.0840227584911775, 0.18949455586958555, -0.021551257320044325, 0.22942671611057291, -0.028577922918366073, 0.25619705057809483, -0.4878319084486369, 0.4992034801647932, -0.45797878015020055, 0.36492350029677556, 0.06116269898780464, -0.48744202944341797, 0.42712642842372833, 0.383350138713703, 0.043032812188173696, -0.3651317650378525, 0.4812154542452758, -0.0663374583853549, 0.12410723985945553, -0.46581162190913555, 0.2852676615538186, -0.31704301417739006, -0.18605291417002584, -0.011289313816224167, 0.2136545369406171, -0.42985753025031154, 0.5010973469315336, -0.4391046458043686, 0.15864972045757889, 0.08511184175483705, -0.17791407370358328, -0.38832173586751695, -0.4305395183773691, -0.1878747807054999, -0.2422931406320591, 0.3325671860282705, -0.13222349111061954, -0.3454626088812504, 0.4067277241003877, 0.3411196475193271, -0.2326976227755162, 0.4854414217384456, 0.05036362333880121, 0.04385906630637484, 0.2128297665641118, -0.20974211708138019, 0.16925453732039542, 0.11786803709423348, -0.3063952067868375, 0.4369235217438828, 0.08289678776969611, -0.07671152256118394, -0.4481884337992147, -0.2549128247766114, -0.411266016370099, 0.00724928776529547, -0.12218646008501685, -0.4213184455656273, -0.055777991467158, -0.4474339485265276, -0.009059757027834793, -0.41963784765155054, -0.18739115305160314, -0.035960478123074124, -0.09005847050884627, 0.25798865606880933, -0.3884543675950206, 0.032368787532884365, -0.020079258678425808, 0.24136443460778956, -0.1431120936057583, 0.3024649939757639, -0.3414260027244816, 0.39154284588171223, 0.09100987628937693, -0.44837912220407117, 0.31966772315839387, 0.08618276323894136, 0.3061347610245129, -0.07332906794490329, 0.30379864714277627, 0.2869653634556449, 0.32657824616136116, -0.27352434699127287, -0.28970894369689315, -0.33098494508807136, -0.25625120948106406, 0.44643808635013, -0.4395655488785032, 0.4892708919329709, 0.079549910304615, 0.07282532153996879, -0.3012818681460381, -0.19321749435564345, -0.2938425317891676, -0.30710646828382054, -0.11361450362046005, -0.42865330013526565, 0.40484887578932544, -0.4679088213551336, 0.033177619912087786, -0.31258107638082666, -0.23872987553993077, 0.2907533269201384, -0.1639037134591785, -0.23488208254234003, 0.512142121633797, -0.3047832998746217, 0.5147640263638844, 0.43158898880253355, 0.1395101275559138, -0.08304716887614377, 0.34928937031145313, 0.27403707497248625, -0.41838258215527147, 0.33306030800066155, -0.1737267369887679, 0.008182887639947123, -0.15852704001531925, 0.12897407782632653, -0.3253759807930221, -0.3873384340279518, 0.024734960112114936, 0.3025791102271722, -0.28375789996403195, 0.0730378613215605, -0.5162858217272205, -0.4782794100278596, 0.5041347957203149, 0.05825778396901081, -0.19045563919934627, 0.1607833235904222, 0.08189495977296618, 0.042669456608156395, -0.033981690434260886, -0.007608781246591829, -0.006708244535835617, 0.15247923240023248, 0.29402114952642733, -0.10710544359494617, 0.03244626216341462, -0.47734901004157676, 0.1916441677263179, 0.4539478261096404, 0.440585294450438, -0.0157255533025924, -0.32419159844090906, -0.048148521251920484, 0.3108800830573464, 0.4577927472544307, -0.4914838872328912, -0.19438182441164853, -0.35171263804233244, -0.290951117934645, 0.06538293859432602, 0.31361617124481445, 0.3349099201293729, -0.31479522902756707, -0.09631808929895436, -0.12457915186489689, 0.42295163157603405, 0.11965608338619045, 0.08218376372826385, 0.18621362611122355, 0.23078884443942257, 0.3691314717390095, 0.09066109576737484, -0.4072394983382043, -0.27950336975284995, -0.006484943685860044, -0.4108094768229181, -0.3154038390246345, -0.39563007767504843, 0.03256879065909124, 0.4338786929924585, 0.11837311681182372, 0.35193127046547706, -0.1906156403699545, -0.2040895149656128, 0.47917128015288585, 0.2386648652761902, 0.051974165153333564, 0.007018556993393341, 0.205734106635609, 0.025653027292851308, -0.40224034455765667, 0.10475291474752518, -0.003396094688162628, 0.3768750264965807, -0.11365965102854392, 0.32281169156598455, -0.08738312520459116, 0.44881471965799413, 0.34333064708835836, 0.3392581510066462, -0.12781497792310556, 0.2695472991392801, -0.19223937879332803, 0.46210679425260537, -0.15660695844661368, -0.0726015245857593, 0.22088315101292655, 0.089128665228278, 0.4070747690812596, 0.2995405079588721, 0.06634945305486818, -0.44835256310143823, -0.09109358142237554, -0.23826467445591057, 0.15240300184386282, -0.26749878881775463, -0.10318163643393391, 0.27000930397899015, 0.2557649869450348, 0.287279454527695, 0.04994787018803418, 0.08321879228677649, 0.5945537458766327, -0.07000063551975047, -0.287680632210227, -0.08933432281573067, -0.08065961329862441, -0.39444547438813626, -0.4378597010202849, -0.11813948776700406, -0.23352877971247382, 0.3428452706786033, -0.22252866548872488, -0.36698683548628075, 0.4456920858516721, -0.4633834355405726, 0.049895434412493445, -0.4816229471602442, -0.38112941710823295, 0.4258707395305502, 0.258361510987969, 0.33090551583895306, -0.14096170829956542, -0.33293919549456563, 0.10348369858162443, -0.4233477379531315, 0.25521382165323636, -0.14078178594251134, 0.2055508388041974, -0.10662800872698273, -0.19209765225081518, -0.09510137626083, 0.309371524615785, 0.4113490955778997, 0.29384042341175837, -0.38137403670116643, 0.0360675100642816, 0.11488699681671784, 0.10022666111185832, 0.17865009148215966, 0.28414564578946816, 0.42289786811367547, -0.4726138413074793, -0.3083368523948523, -0.25186146329707726, 0.34093440614840925, 0.19776718826122927, 0.2067780847594362, 0.2678492017888199, 0.2545530062141129, 0.17853686285364073, -0.09836507881596349, -0.0638469888738152, -0.43871768629263885, 0.10826909905125703, -0.015465910192304363, 0.5204460867825088, 0.017697307502042948, -0.05630962751151117, -0.10696829253854041, -0.303980993996643, -0.24714594445122104, -0.4839900444343106, -0.015683921888136627, 0.14654932415336566, -0.031917912798979556, -0.31916310652366264, 0.14309086027160808, -0.4704958817394555, 0.07822554508512441, 0.3612606930406581, -0.0530042678982654, -0.08072011938212531, -0.4603565325731794, 0.446344960053103, 0.2315848966824722, 0.21659931044885328, -0.1910912274743669, -0.22432210655618284, -0.19986050748097794, 0.4890432412987722, 0.4919473079407, 0.3815478735206601, -0.15344302839906881, -0.37487325042038305, 0.349257440934177, 0.48961153263749724, -0.4746786545159946, -0.3702683637707449, -0.1646006396675719, -0.002847126471433606, 0.16228382250986845, 0.2342150728267209, 0.20794269754517491, 0.008312912873462787, 0.24499734116679633, -0.2918086435590528, 0.32970841800527256, 0.08443470754693194, 0.3665405706192605, -0.17831112145495243, 0.23264591214347535, 0.34314054334984706, 0.014758280913982444, -0.2515992074147604, 0.16632635738371315, 0.17162047564484023, 0.18326687737319705, -0.08106038867513878, -0.24945946189688994, 0.32606944111900527, -0.26143485706079866, -0.017872370853525228, -0.4498728489544314, 0.12243951380745739, 0.38854124610406465, 0.46437749765436653, 0.3059310928863116, 0.45251610236945555, -0.3097349324310765, 0.36052478845661307, 0.39839196614411226, 0.444558733410608, -0.21198181756866297, -0.07287927775233324, -0.05618760219782966, -0.04357113050101413, 0.07494807397726844, -0.13172387518502682, 0.28119389080200113, -0.20676516153621935, 0.41396100879603226, 0.427918711155711, 0.013817153926155023, 0.16108899395885573, 0.20884877019922526, 0.01785841803245258, -0.2909802413771414, 0.09835137742705861, -0.20186407487068297, -0.18175475702855368, -0.41957883124171413, 0.15871992609559055, 0.4077095749069485, 0.2623576828979907, 0.18857365171659962, -0.44564054122369956, -0.22673024631852565, 0.35002935377025224, -0.4158401353214851, -0.37100301643315614, -0.335795984648324, -0.20188298498663715, -0.14709446002091875, -0.21684223911324174, 0.4315221746487975, 0.4241540069696905, 0.15293961428548164, -0.3995606757774983, -0.06598252097411822, 0.35329771758336154, -0.3861464562905859, 0.49258541281142737, 0.3184756195426969, -0.27388539946085566, 0.5178762007079634, -0.2384443398245719, 0.29365522043146636, -0.17771569842901977, -0.4219470292422357, -0.23123938124952856, 0.3101982661785814, -0.44029124885604554, 0.3450061592774819, 0.4581725589309026, -0.49834488221994344, -0.3069991864696155, -0.05951040665434589, 0.19721513471837948, -0.17883851358685798, 0.058806670538554484, 0.2569649812934681, 0.34718002924548885, 0.4443326918827917, 0.15299901758900347, -0.3619784369128005, 0.4006942847486741, -0.22841997717372878, -0.11181819101293139, 0.10693490948973892, -0.27516990036137656, 0.016346078892800507, 0.049352112842421705, -0.22276991624570075, -0.10459368832766047, -0.1321049820369907, -0.302672670633425, 0.5141297273145508, -0.24507955888285124, -0.41926313945823024, -0.4643131560419025, 0.48736112834179496, -0.16186256258142728, -0.3658709941281872, 0.2817273548559522, 0.003957669412460545, -0.48314211938759893, -0.4939723147296278, 0.498056297724053, 0.07511309660396837, -0.22526098068988687, -0.36580763341626443, -0.2255648157544352, -0.4133408098883573, 0.15242024261645584, 0.43221746185456167, 0.2539047407674402, 0.2531965775472439, 0.46854323036750384, 0.3286095082467011, 0.22705197969242227, 0.019313747887576928, 0.12651184979456917, 0.12385804073001248, -0.3917811139722207, -0.12702793018162908, 0.12979624248626748, -0.022663092060951143, 0.5078058505211188, -0.3935508486416989, 0.18461641390585062, 0.4953342669996132, 0.37155553567116795, 0.04871485853345192, 0.027135360337195658, -0.04368218140524016, 0.10548687127448098, -0.4992588924075534, 0.2787978579391813, 0.2959679525735346, -0.05510488062050989, -0.29703124668606995, -0.01861137439457572, 0.016396556520784866, -0.056952216631557605, 0.018224943875185768, 0.050452528791638536, -0.45680028788322047, 0.02434853115286105, 0.37183502865319495, -0.08402064854882786, 0.22663971243698253, -0.19198706012348563, -0.4401627511125592, 0.4077512375956116, 0.09654275315601546, 0.1766399629009038, -0.05848434956589316, 0.15555794205202733, 0.3946771813648292, 0.35045404516595935, -0.08765192485941575, 0.31018460410879944, -0.1512276753818771, -0.4847336716667834, 0.02210128795976629, -0.014225314966237357], [-0.11438197705241393, 0.4344202184439674, -0.31884976364290585, 0.1177871058829486, 0.12579787996256786, 0.08666736966061483, -0.0836698389949091, 0.22218011150972827, -0.37419842649370316, -0.12286621500871597, -0.1846995359111102, 0.4883533202743904, -0.3592664412748594, 0.15760731805501793, 0.3306577870190819, 0.4283874082449767, -0.24495316435324344, -0.36982004617800635, -0.10693128466638013, -0.362938866415938, 0.0817586575508551, -0.47595906023546286, 0.39054881448894263, -0.2189970607781152, 0.4619520560935043, 0.24895944425265892, -0.27480135797751637, 0.40903005763584255, 0.49989849850869317, 0.13629707168792782, 0.08643866839225989, -0.4746878675166083, 0.45809335594312006, -0.1017112285856433, -0.22085205041378864, -0.06911831858804796, -0.23105532322150057, 0.47074276243086377, 0.3077860402201898, 0.36998172956088776, -0.09293108288666019, -0.1561105328118903, 0.03716939301785844, -0.23478242105366132, -0.02352910835313194, 0.44956941530380895, 0.25558700233774, -0.22078702354471147, 0.40800350384359285, -0.09347082160026121, -0.18923953483763878, 0.28072414607090534, -0.37350533940734576, 0.2959671293318401, 0.05222413626055078, 0.4682684505346245, -0.37752446837998854, -0.322943029706925, -0.0872534174776608, 0.1345196254621328, 0.03990002498646994, -0.010824648862929331, 0.4580498210527988, 0.4515153419346337, 0.3550703645495461, -0.21573165426363328, -0.31304222990972497, -0.3786685824035847, -0.15920611003300794, 0.21234228987947043, 0.3116512578625656, 0.4623911393394663, 0.006750929352969534, -0.4160987697669525, -0.164374786207022, 0.15569709636224802, 0.15621169184893255, -0.0324649566089625, -0.0705965167796847, 0.17507586935470498, 0.4746530252997584, -0.03717631491755213, 0.4363750469258575, -0.061571761961701665, 0.26690967764680473, -0.35301872269731605, 0.27569148899672113, -0.3583091234081337, -0.47082154908498786, 0.06939996443290353, 0.2965637066919319, 0.32304611413988, -0.461752562641057, 0.09221363962495033, -0.35737510893929636, 0.058616203626497075, -0.4457264691820847, -0.026443310584684684, 0.440974281130154, 0.2211675989902672, -0.3231148834861861, 0.49951761579439213, 0.1291229363252288, -0.19200435990466172, -0.2894689125070799, 0.10494237404336541, 0.15931971420261934, -0.4286990126609138, 0.12872782617539347, -0.19904925179052546, 0.05459919789658907, 0.22865899127768552, -0.0014265518409461997, 0.4802117081903887, -0.35651492457459244, 0.06801225819563972, -0.3731161880147485, -0.04373823542743979, -0.05417644720300982, 0.09671249109831832, -0.2261682392761693, -0.13555381407002715, -0.20030460608255773, 0.11369153715679423, -0.27165208612110064, 0.11011146588289092, 0.5175573227250648, -0.04426552187469405, -0.3902433618297025, 0.12007303228792222, 0.4770629461702789, -0.16059944156893688, -0.127011425166525, 0.29684032268044636, -0.4556844008052405, -0.06732270756798193, -0.3848919425650803, -0.00015743574814353067, 0.14360530783144032, 0.35372749451928787, 0.18222704674043755, -0.36972181218461153, 0.4536395062906886, -0.454367219009552, -0.07074693602347362, 0.019703721046552602, -0.05868511835107665, -0.011125969669204771, 0.13119992712456113, 0.3496890110433399, -0.0823311249794802, -0.2607331080253141, -0.34925447184835634, 0.4729749814793612, 0.40820181523145843, -0.018333186891301863, 0.009072463592222132, 0.37176405319132594, 0.36676102037007896, -0.22971421884386653, -0.12755175526176002, 0.1578144726419045, 0.20397779888737613, 0.1489819339086081, 0.30564442497537236, -0.17387541081187932, 0.31846022908803523, -0.0540789382881679, -0.06393374645352767, 0.41831261652253193, 0.35712703737055895, 0.21633150041152677, -0.30543781452060453, -0.3286867972386709, 0.15885599373346349, -0.16009721409638789, 0.44920996345986774, 0.10206724882886507, -0.2019441015919152, 0.07041480439791915, -0.23733806410815803, -0.41201931608535025, 0.3189882807251337, 0.13908328887176105, -0.4501400005071524, 0.024341797571999814, -0.22032652930747013, 0.400960323442211, -0.07614051547058634, -0.16726914381732733, -0.5231255351840403, 0.20406119172694964, -0.33869042143334444, -0.31084431708355215, 0.00413081467942605, 0.455783934176051, 0.32897328555448235, -0.19449500469558867, 0.33000762978961135, -0.3129829045033729, 0.10940985298301918, 0.11808776577473644, -0.24498749290752048, 0.3156497717353695, -0.1264151081601325, 0.20732996309231927, -0.13568828494224983, 0.22388123008230001, 0.16587405399020408, 0.2981929042211533, 0.37635854381068784, -0.49461392456567227, -0.07658065549965859, -0.46221422643815147, 0.3685402814336798, 0.26070474097693586, -0.2971144696554801, -0.4488920076107116, -0.17998925435292581, 0.3753430444895548, 0.1965621673949895, 0.02890201365303618, -0.31026595045162475, -0.30641265907580756, 0.0752937128230513, 0.11343199162745343, -0.34254714307329664, 0.13672986161973208, 0.1308482674799347, -0.25825153490395364, 0.0300756772461668, 0.028854687541960803, 0.24554083884154698, 0.15551668359130658, -0.03419842772204564, -0.3357206788448342, 0.19272884168117146, 0.1760204379940745, -0.2607128331409355, 0.10140786904224257, -0.5528863409356334, -0.1139441277130446, -0.22355413200958532, -0.535020317241221, 0.38968300728260613, -0.08017091258561561, 0.15542279902696085, -0.36438240966788216, -0.2567652326088636, -0.20476578273197737, -0.11085680134664495, -0.3719291639006933, 0.18379725390797408, 0.009199943725769086, -0.16355675831983993, 0.01011010348741781, 0.07564751836712816, 0.17395730763311432, 0.4218863676633079, 0.23972005010605954, 0.4502240118025813, 0.09051780099406147, -0.1254373551783987, -0.3373214021839214, 0.2644889332810654, -0.3164261111875879, -0.47344247371421694, -0.4960952844947742, -0.032803702773398107, 0.43059100074653345, 0.39094942974524866, -0.29582223800156504, -0.42316197234683695, 0.35063171254236486, 0.3657762284508505, -0.49326308017579984, -0.38497333299459374, 0.06295369816217526, -0.24648198010824504, 0.16249288076021817, 0.4919692995479532, 0.09849352274790206, 0.05904728498610598, -0.3196057912885128, -0.14306113678574192, 0.28379263585074316, -0.10159791165502961, -0.10239555317183999, -0.01277814020375594, -0.2691744181495211, 0.2819315311343893, 0.15797287083236122, -0.4817559213138749, 0.19791817896725178, -0.4433037141809572, 0.04428398198019418, 0.1515794334580709, -0.13667408003998172, 0.3703967352635081, -0.2513673230508475, -0.2635568270080015, 0.26927030100246363, 0.4521912027165052, 0.018544892308574912, 0.3436267619812352, -0.03796574434710028, -0.227026221036532, -0.33087508810914357, 0.3772383325804419, -0.31914522182547844, -0.300172199843606, 0.014141223577119364, 0.07579137009789019, -0.462655326429187, -0.07876669099616766, -0.33991090538150476, 0.1300240075707933, 0.5068260495833122, 0.14979104279409658, 0.07663445272218677, -0.3306717849717931, -0.09242994117419098, -0.07600821271910578, 0.39886488529889447, -0.2193551983355555, 0.3185815294271836, -0.32838043501004077, -0.19032948399303573, -0.4103712732593846, -0.21096613812464468, -0.28787301311074254, 0.3934100761799702, -0.007467282245168709, -0.16840051432361644, 0.24058117961838235, -0.47184087670921704, 0.09858827127643499, 0.26529095352328547, 0.005335406339750001, -0.4220937991271621, 0.12798665621432542, 0.36878823739433036, -0.3976234491984448, -0.45801172958606423, -0.22044197758606818, -0.39396525719188163, 0.10610806815630973, 0.2454440946307357, -0.33622684458853386, 0.02751474698502439, 0.3412876795223306, -0.1676291867131172, -0.3342880089961642, -0.2575128984576241, -0.1299409025523295, 0.04239588598943105, -0.27275674588997795, -0.14581154328744628, 0.18684953715381344, 0.47370191840151327, 0.3024671243018503, 0.3426885700858774, 0.15868102546151971, 0.44730665327269525, 0.3317460383185664, -0.2239010290974266, 0.31223418457518315, -0.21450054748984834, 0.4862775600302808, -0.03057540925517704, -0.31515225836984756, 0.2836533731619248, -0.3471695414122087, -0.020113941694525263, -0.29421010812095727, -0.3447236294064236, 0.3034278350494653, -0.48805408112701915, -0.3140537629126084, -0.44825445057410856, 0.5056438343767921, -0.032872618676459305, 0.3099462096783526, 0.3166079909327436, 0.43378248316855517, 0.4614063541713972, 0.19726297583055455, 0.005506177073542414, 0.4692032333483974, 0.39029478669804, 0.397659005190078, 0.4975553780175147, 0.1654306514853633, -0.19060303572643766, 0.0308048939558494, -0.14818315659183537, -0.029722554113925728, -0.43142241825169814, 0.29225174730522263, -0.3524832605604973, -0.03734410356913554, 0.05213827468039188, -0.1493441718174927, -0.5742620289393037, -0.13871884203806786, -0.29345071559565616, 0.3712976484815476, 0.15248887496264366, 0.12394794869255413, -0.16806795688769727, 0.3869707564297998, 0.36041559133344764, 0.27843546731676944, 0.38734759000622243, -0.37491701061558064, -0.3589122455268279, -0.3834116827319074, 0.16732124570075677, -0.41270883290712845, 0.40018982414689364, -0.21385927069873933, -0.04999911383858435, 0.30207179028835196, -0.2945647074266418, 0.2478949531834689, -0.24535789290178298, -0.1304155779631164, 0.1990383511262842, -0.38704917744847533, 0.43249840260446254, 0.22115427117300462, -0.4762025734812197, 0.016026732229369605, -0.14839958181713403, -0.13607581979342784, 0.5369369323333606, 0.3008421829315815, 0.20754186734451482, -0.06111257540376172, 0.3432776722294658, 0.2872290418553817, -0.07622985841728801, 0.2873640401695797, 0.19085890667364772, 0.32100660361341826, 0.0660701590625043, -0.21013897107415971, 0.2663737062385805, 0.37565144925460536, 0.40368266744286485, -0.10236430899935205, 0.09719424804188281, -0.4763912143333468, 0.21876684833566826, 0.18372123083047226, 0.40725462913599275, 0.27318511531804, 0.13798296453766834, -0.2717449101239809, -0.05517632171769395, -0.2623135053170232, 0.3453328600921404, 0.0048019239134382274, 0.24941182289743555, -0.010439032331314095, 0.2963640343565444, 0.1168319722724026, -0.32503707266994036, 0.15929559802573073, -0.3059253628488665, 0.3465434044180446, -0.17866685910981422, 0.4127159670484974, -0.05367991631521571, -0.3997158029726068, -0.48167378999134935, 0.2637112108714563, -0.3577828726592286, -0.3644103356387006, 0.13198751875661038, -0.2931897880386685, -0.012271821602484844, -0.3296794093337903, -0.37279819383367746, 0.27845410904030166, -0.46108291768119436, 0.2904885980320204, -0.030872769355228043, 0.16101314112222603, 0.2296516311392228, -0.037161097157920084, -0.3509749686496066, -0.27143234092988444, -0.4906774659017433, 0.38910455999911714, -0.07272518750018415, 0.08821883294295202, -0.16354889508022055, 0.47628267844282335, -0.1037655201294787, -0.038630179389221385, -0.07897355132665478, -0.17867422597042548, 0.45241073334894155, -0.33315167376231514, 0.46216556559915545, -0.21444125391769636, -0.08859440686735454, 0.15381305659692887, 0.2210272631071869, 0.04306079456031743, -0.058802318275420436, 0.30197014926206533, 0.47857045989845937, 0.3297819308839303, 0.3982483719741503, -0.21658235203927154, -0.3661539258813277, 0.43904431506043795, 0.15347517300560484, -0.015475452098554148, 0.4344780312626543, -0.29603481556127326, 0.10332360804776282, 0.400058428306967, -0.11604268355995978, 0.4131060925377668, 0.28729658113349793, -0.448288012695229, -0.11750490518419404, -0.4144075926291644, 0.1978297678925106, -0.27818549622510624, 0.4670852727524454, 0.47065988624601546, -0.35156676101176815, -0.38916951629575286, 0.1761167587025826, -0.2009361237422835, 0.2400707870512846, 0.36013679239287366, -0.18349112971043688, 0.24194483259220617, 0.39613847449058903, -0.35399704679333327, 0.39533611961470233, 0.34007790540553823, -0.32415218817434155, 0.34447976440521805, -0.2212307254464917, 0.05943212910829227, -0.09134591902519983, -0.4500382821018287, -0.009151155063236393, -0.469538386461051, -0.3528544020948966, -0.10907594658800707, 0.22213660823603218, 0.2311426130373333, -0.11519849015037076, 0.46265558443113797, 0.3659677388644873, -0.1725380672164343, 0.14502029676970957, 0.3768201658171994, -0.46150470159482027, -0.26399161189196807, 0.00853142756633364, -0.05693576782395776, 0.12140481948763762, -0.29033457584561184, -0.045998655023550265, -0.04713245682559723, 0.20555151407216712, -0.2631028804922966, -0.3498180837616042, -0.20914107179272734, 0.24065734287794688, -0.0018381546693045593, 0.12360994886277511, 0.06845602974852083, -0.023009954500305577, 0.13097876053561272, -0.050188074963145216, 0.4393719716011412, 0.16920642993703397, 0.2999685320604565, -0.2826392011389599, 0.2556462641478877, -0.24217749301839353, 0.0376632433164112, 0.2889652694245788, -0.19097336985691749, -0.4411120153390884, -0.5365989858422666, 0.3654499902539276, -0.23043706193482671, -0.21863627202387104, 0.13661234994825855, 0.052996039434654155, 0.4956980016428704, 0.15533849597586982, -0.3416832853961761, -0.03978880389760939, -0.032745024909280045, -0.1613025217696685, -0.4379896140206755, -0.05970817262315359, -0.19174295973000277, -0.0038614905396276255, -0.38004785983734257, -0.0768068166734003, -0.14770690139160758, 0.34839541191874196, 0.36963796147723726, -0.4727031936986067, -0.41176087825159735, 0.29855096710061346, 0.34809829641743767, 0.3454989013841962, -0.008685832902374041, 0.10587860292117904, 0.3203538121919935, -0.0662111659783054, -0.47673848633780563, -0.10110083828677169, -0.37241540885125146, -0.32028901968012646, 0.3783530700131398, 0.04459046058090255, -0.517208561755346, -0.16326078528603338, -0.42175753624168016, -0.16779279176311843, 0.08330377003883169, 0.5028737468448172, 0.4814370917065443, -0.4299906304495918, 0.3125691420742009, 0.15485852615523177, 0.42861628353390474, -0.040493075083882044, 0.029381469802223156, 0.017230304133553642, -0.46893535692333976, 0.006213522858698695, -0.17259887180372538, -0.3063268420670357, 0.3683137454426875, -0.5236710166761221, 0.22551431475783484, 0.3662874122086041, -0.07913423320180667, -0.12842037656784755, 0.28147146191863315, -0.30283780046824244, -0.21248225638057058, -0.10401221469633858, -0.5401868047572752, -0.37581482797996596, 0.1507514371300968, -0.48683087069147957, 0.1460491659909436, 0.12486129286718435, -0.2787895018437986, 0.4325350722418012, -0.4602761866988584, 0.40474054657304526, 0.40959846582064197, -0.47542781119292865, 0.3744964309775032, 0.025900313111054896, -0.4556867836262145, 0.033128058901624846, 0.39339264477649405, 0.325723172123667, -0.20849147917528849, -0.3378818414723846, 0.1668788965382991, -0.3183463707460304, 0.1762013734850305, -0.1720783583285605, -0.4685568169716242, -0.49069211731264784, 0.14465031267750605, -0.33324089342147406, 0.3558837951403067, 0.13235762320028063, 0.23780226190853945, 0.2393845178004834, -0.4177232413181831, -0.16202248359188415, 0.43217240776214466, 0.46013458908577404, -0.1276305450307976, 0.42454291295920965, -0.16956442520822554, -0.0795566496757556, 0.49573149331015287, -0.4658604398017231, -0.3226791975412897, 0.21926735944722264, 0.38100409176366856, 0.3443262864149248, -0.430573915785343, 0.04669152643387395, -0.3607042189113376, -0.15139290000922256, -0.3537097109728542, 0.19055070496005916, -0.18859058846256813, -0.08328134331891143, 0.39296889298344, 0.3137854354966239, 0.14635869630039297, 0.08498340898197027, 0.24942196394734187, -0.17607430415119057, -0.2502874960981538, -0.1293602930917089, -0.4224991070687116, -0.39424453796855635, -0.31332708662118414, -0.41941343216947835, 0.49003072176519463, -0.4146654386633979, -0.19168611430965865, 0.43033101203048285, -0.23199838705883158, -0.021372410040602974, -0.44331729689250254, -0.41904709869642287, 0.17732841718839515, 0.1665162221430505, 0.2895805803638822, 0.1771156232181245, 0.3116680084309147, -0.04913239277437383, -0.4047821963437143, -0.4328915782421891, -0.09080023457415996, -0.23906785247117426, -0.2492660091935982, 0.1594542755962114, -0.25541024939400453, 0.25127124613124574, -0.07956250810489815, -0.3699705543720996, 0.42492770464631496, 0.17322464683997504, 0.21144712075460348, -0.47105968414745136, -0.30271392925752305, 0.3864685721413218, 0.09880237778273548, 0.09542913233004857, -0.39581103696711495, -0.036601012309594116, -0.17142917165569216, -0.18137269961582625, 0.17853613028990734, 0.4474737880425948, -0.11716237919818401, -0.06368055309421564, 0.1820728260278666, 0.23329639242915373, 0.46838181729479106, -0.3294475973160487, -0.43024537197078777, 0.1059718933795399, -0.09265629382484418, 0.32407829303854785, 0.30782418232840314, 0.3073637214249876, 0.1813647557511858, 0.18761036655813834, -0.07456025974850933, 0.154202729426128, 0.12144287700209189, -0.09873689690285803, 0.31452586285584416, -0.4283324982576744, -0.19962219489945254, 0.3755147415925727], [-0.2526300585873612, -0.45854537976574994, -0.3368454596776732, -0.03483411975109951, 0.2071895819954147, 0.4801885008649486, -0.25274155530471754, 0.06510044467597964, 0.026899894731113427, 0.1436041220269434, 0.1371892827055733, -0.28385548872908617, 0.23130773051971953, 0.44778234832951513, -0.32105564341654114, 0.3510973431293004, -0.36865666324902646, 0.3932668826270844, 0.2847486786760639, 0.3200089774443323, 0.4408438836526488, -0.11126305490471444, -0.2712740244037267, -0.02010653109300664, 0.26166586678744375, 0.11507181328693838, -0.11222165704132137, -0.3712720898401105, 0.20551406333253386, 0.4214731892364427, -0.09158895454135585, 0.43864906254827185, 0.12364949764056676, -0.3921011052362853, 0.34189648719571963, -0.49013454563241743, -0.21785840813120094, -0.32810945564295535, 0.45130293380949443, 0.025439351552974557, -0.4407222838648892, -0.07184630968662362, -0.1685915167358383, 0.2207900812773462, 0.2713618284659554, -0.1560263088431452, -0.31162485627706354, 0.369008976442601, -0.4216557870204116, -0.14020825416471083, -0.027352878445069173, -0.32633172736544624, -0.24120651772927226, -0.364489717638683, 0.23447456474848039, -0.42419798956524724, -0.45862351073860996, -0.02264696068117611, 0.028830839078186843, -0.29088666612470515, 0.14584768866511577, 0.47314806280711863, 0.10206403530854136, -0.4619223638362522, -0.4571974874455377, -0.38103807864879236, -0.045811152265361914, -0.34774200325724264, 0.033976499035550556, 0.15723464505087145, 0.1895178037045385, 0.17281723155650358, -0.0156378015925023, 0.4219343010125931, -0.006701696044030988, -0.2508255577928568, 0.18755000963561996, -0.3970179855017516, 0.3851141688621604, 0.06659094115728127, -0.16785714756108072, 0.39847584180989104, 0.2334658928688531, 0.36149409960545975, -0.027141897767119394, -0.28192661946430086, -0.4545083699451177, 0.14921485682465463, 0.07888140059927551, -0.14856085817163034, 0.49729154760166766, 0.4363690546925571, 0.08736319381218621, 0.26510964357508304, -0.49075108702187825, 0.3676706098813055, 0.4807077995805413, -0.20783609346583534, -0.033952149427636455, 0.37797747931334147, 0.013388590972744214, 0.3150163377279621, 0.15065374710376134, -0.38494245125613963, 0.1632027708507886, 0.036441588114581265, -0.05739660786543003, -0.3570941901768229, 0.11172948154013385, 0.2912156576664032, 0.04435049001012903, 0.2308945943185321, -0.13232194363626892, 0.4633387379052569, 0.2651770555465063, -0.4141079258453736, -0.23566453238146817, -0.018219985227745792, -0.05304684748463523, 0.3828405105513265, -0.31450418188598095, 0.12756784249757827, -0.027346176806567323, -0.029094970499122037, -0.29342947115428797, -0.14024975237492038, 0.22640221685656367, -0.203853238972389, 0.2316913963186615, -0.41703436966617513, -0.3182568154371953, 0.2886706778756095, -0.1246230574944664, 0.12000290522720758, 0.21318887472891482, -0.14969516880598524, 0.3089490619919546, -0.05186094247832718, -0.30951071654496554, 0.4160592480769585, -0.18176711602890394, -0.005060030056869058, 0.27160842249675454, -0.009174988912861832, -0.16630026864412828, 0.38488081763783566, -0.40509660300207073, -0.2627142361977554, 0.426285804449999, -0.11718038972989288, 0.16187160791527827, -0.03596893781193869, -0.3631990345721107, 0.4442864624372715, 0.30373127218179896, 0.025926613326534356, 0.2510826100139668, 0.285812595715401, -0.3577758319980091, -0.25068997303224644, -0.148512268785736, 0.4294923795634082, 0.010126332211875333, 0.11684656707873821, 0.10004142305618202, -0.115868196980354, -0.23974952977798622, 0.2230094344801652, -0.18267521208444815, 0.2245231437455728, -0.4566578782325633, 0.05088953719873318, -0.2553924117629758, 0.4410822064832657, -0.191128835793515, 0.24851743422954206, 0.4336651566583148, 0.403333917251146, -0.3359754284235118, 0.4896822820464792, -0.43610114789095256, -0.36792893172781604, 0.3425691721854187, -0.24467996269003572, 0.27927782718917976, -0.11985779584702685, -0.293511142785778, 0.23248987832674162, 0.27716520713461895, -0.06094897242615158, -0.14075256118967178, 0.4641613071154753, -0.11749448941758392, 0.008184960886878041, 0.19024382507181398, 0.3380214695632652, -0.3113683532070196, -0.07636851540606693, -0.4562082766721352, -0.383260429788151, -0.24158805639264833, -0.2940048105809278, -0.11230492582880448, 0.3875987624543456, 0.17526149313204456, -0.18343656368812034, 0.36371437659379907, -0.27434463670365034, 0.375814113019927, 0.01585718585063093, 0.24531462487946581, 0.3724349363437618, -0.4681226540329442, 0.09010571423949469, -0.47620227904545526, 0.015606856426235478, 0.4418389071867652, 0.3913423336927473, 0.03215534501951346, 0.05981178319076094, -0.08224131742543418, 0.35837380455107626, 0.21691519141747984, 0.3231162179564551, 0.1305606066463355, -0.1824944329146786, -0.2723254595452568, -0.02858469890644007, -0.12305410154597445, 0.3782852642101339, -0.2119183444622352, 0.1562750759241766, 0.20809574841402434, -0.06392467045062575, 0.2740957665548908, 0.056461829078220456, -0.4588787826327532, 0.2082748862385147, -0.28934626785031553, -0.011195685178398161, 0.29021969731053426, -0.16413629724869824, 0.3378134263856845, -0.20004143456312803, -0.3907405186890888, 0.18656354345957532, 0.12036368567511235, 0.13505659916526183, 0.015948079721429056, -0.03726097394533361, 0.4826676423100255, -0.035865187287648204, 0.2026959933198541, -0.03207834977082614, -0.46221546921647916, -0.41484682546359797, -0.202598410600709, 0.27110055254082166, -0.3982321590655683, -0.025480702487507147, 0.27661112536745014, 0.30053344999697357, 0.221957039937952, -0.1793790862646687, 0.49642726986417113, 0.393411606669198, 0.19608640036316272, -0.27798168641442544, -0.055531503274480476, -0.3031834857431779, -0.2231029370503793, 0.03832600920944941, -0.3217620898262606, -0.36622444358483386, 0.2733535605329192, -0.4434869253653856, -0.015867741678187903, 0.17733956022115566, 0.1895014306401539, 0.35092578273234165, -0.478507441225806, 0.4573791584440706, -0.4496908687975173, 0.44871095458155713, -0.39898100175929097, 0.1853282893035818, -0.025972436695224775, -0.4215406336603227, 0.21635729592466393, -0.29600734948753354, 0.18195534477132713, -0.029716200609303592, -0.4330503996697978, -0.13063736075330243, 0.31518334986687147, 0.45847109858065865, 0.3612493704848234, -0.16386599698101467, 0.3069883685081533, -0.24504005295588605, -0.3697564671309734, -0.001253503675555569, 0.17813724149489693, -0.34801197362291214, 0.09305085781404553, -0.14683000257471368, 0.22954528801632149, -0.2834203854234604, 0.3997382769829867, 0.22335655641277685, 0.41220360803137684, 0.4740715244872482, 0.28921664199905656, 0.42093494343317195, 0.33592710130820247, -0.4094421934209441, -0.3902888257945617, -0.2933590457629923, 0.10997699217715819, 0.09838258656343599, -0.3395398073183722, -0.06750857890950997, -0.3840554496242568, 0.48481791608180064, 0.45383112467774633, -0.23764650614555435, -0.2344863202487391, -0.4043467397911235, 0.4076920573563272, -0.47887462359721544, -0.21676644131275774, 0.3227771519818814, 0.1530387431633194, -0.3506088219882399, 0.1024327809416468, 0.19678643357841308, -0.04457455363124396, -0.07952320865394502, -0.08482017370689728, -0.08910307622758382, 0.5061253756214328, 0.41925643979000166, -0.08064629098374856, 0.4067828429852096, -0.056042105204772166, 0.4932879192658717, 0.12443694150114487, 0.20230689292043486, -0.16873335805101614, 0.013789398177179387, -0.08899940967361614, -0.033985376144397915, 0.4203235117327495, -0.4524311960828541, -0.21336287126136802, 0.3795751843931215, 0.4469862256586491, -0.19385666201445304, 0.4627654611485078, 0.4274434803471188, -0.49471533720216065, -0.23860408760747306, -0.1427481758226011, -0.3425586313307156, 0.03984403268583958, 0.353190196921768, -0.13653698423164443, 0.21980841750605645, 0.21486770168706462, -0.21298903212535705, -0.1925372583098731, -0.43980853829655636, 0.4438118475205265, 0.20671812813763987, 0.23938395140570506, -0.49037172376015437, 0.02989709525244687, 0.4497068510876581, 0.07627247079395943, -0.15380231291271126, -0.13414376929650207, -0.09120895329285844, -0.18421813457392455, -0.02979013502664392, 0.3035733840641442, -0.3934786141490942, 0.4438182581797002, -0.2131318855245154, 0.45664900547642384, -0.43617218606848035, 0.13406006741274334, -0.17619032094097797, -0.17398572534829493, -0.36158486244218924, 0.4123005868752876, -0.39795471973479873, -0.020446252857865367, 0.43104975013768787, -0.4595973484706066, -0.19383229085493459, -0.2166560026586432, -0.3170714892956846, -0.32554301147389475, -0.3399020070834855, -0.3733646112886707, -0.25824471405466304, -0.22449635907744678, 0.13514381243817042, -0.3584590362295449, -0.36466121700766607, 0.23458887005621687, 0.24200833290322243, 0.32709844038153635, 0.016328278438807946, 0.03204440806634204, -0.3758607313520269, 0.12619057057454985, 0.4093393941414443, 0.05119915259320906, 0.19108287618412834, 0.19223179889045228, 0.2937678703490373, 0.39417074718041456, -0.2670436555714941, -0.22749472760309553, 0.10247553198860486, 0.27760618311599894, 0.0603622948386088, -0.008934402578152426, -0.39985485839367846, -0.0003374061910894992, -0.15028064461180582, 0.3787307481987202, 0.5938878596498479, 0.45591653568661455, 0.2779919226284307, 0.554666223350857, -0.07462670346199797, 0.057112648453922284, 0.021621533624671396, 0.16741195598241956, 0.07993194300178923, -0.16530733425681102, 0.057523228055030996, -0.03823550321643461, -0.11951130741862039, 0.34694031905347084, -0.4039499765995471, 0.449079806654322, -0.3841802282725748, 0.14916641879534104, 0.09639509987489259, 0.23516339308785153, 0.08955186471972122, -0.4581253028587815, -0.1984218172196637, -0.48551893551846625, -0.36404555735677785, -0.04230583520543948, 0.5646068213451, -0.3308516732027628, 0.4933692706086235, 0.36034435030636836, -0.23971315844058008, -0.11125382240788168, 0.0995903542660611, -0.19471879011946994, -0.25071741511712403, -0.041753917318793, -0.3602085001433667, 0.21505926605623832, -0.3996530147128057, -0.37953426965281994, -0.12810323463818932, 0.3473034774078283, -0.391847731071689, -0.1440546027726538, -0.39523198826314687, 0.3953085825190867, 0.0030781798505907175, -0.0864669980497107, 0.2820216423902766, -0.016525115828174362, 0.011579790374578066, -0.07550342597023074, 0.3785816307478137, -0.3877584861665082, 0.5766157120426515, 0.4615321519857948, 0.48423039253558386, 0.37795566249125334, 0.03874403405821426, 0.08883480560749671, -0.29850419028512454, -0.42908720082109, -0.08778919885789348, 0.1518963561241244, -0.41048385982786717, 0.4647406594170941, 0.3709403162807112, 0.3457021887208567, 0.2454808585779521, 0.033364145730841344, -0.49457638068507015, -0.24555626229856864, 0.3975605871497073, 0.20227584741806962, -0.1549672033485513, 0.04250683790906021, -0.10848562689207067, 0.13551657014963805, -0.392044712400497, 0.2856256667721271, -0.45007849041069625, -0.05130148809677913, -0.15053812956329393, 0.28395514527368604, 0.33711354484837047, -0.22287895822196785, -0.4048106072900696, -0.4131176771778682, -0.06730274239930648, -0.030318768638666727, -0.14076127390266213, 0.36923025027306816, -0.29111007819951373, -0.3045021986781499, -0.49559530531430257, -0.4632621968994814, 0.35056966551518, -0.08930779126588162, 0.17344861938582035, -0.20229456954505143, -0.2922262659012902, -0.22638755210740447, 0.30243975565330117, -0.4196473685102784, -0.18339396240447012, 0.06001359237133102, 0.31911037478306387, -0.12973401773799165, -0.2679931703778915, -0.12397581881598835, 0.33862384835054954, -0.3562588803050495, -0.4141871449055613, 0.4381633597303747, -0.27345233221202686, 0.07342832201655333, -0.5009150359290057, -0.3003808201356862, 0.28445062733698684, -0.49529806333816817, -0.36639203479668947, 0.04192616073185164, 0.040328723113920634, 0.12729380661556786, 0.02681776357098068, 0.30354371301103944, 0.20402432501557355, -0.3451702518983123, -0.07076752958490429, 0.26486632144930394, -0.3915874320000737, -0.26481323769633586, 0.4503829579056172, -0.23994831169230657, -0.39747461825928937, -0.13308653791714067, -0.09996253046001019, 0.22524715056296224, 0.13146350955882696, -0.015633315796519873, -0.4189724974894268, -0.46085876863151903, 0.010044186242429178, 0.06158558207721035, 0.28706988961284907, 0.020615694730591223, 0.30144592072180965, 0.014790954195514164, 0.4414165886250045, 0.2674089937150516, 0.17164345221634184, -0.15584344094423117, -0.20812647997763759, -0.24078622963293253, -0.2791636068924942, -0.4443341187898764, -0.3110597714381794, 0.057247399659371305, -0.04846149000432303, 0.14417842234701544, -0.14321853900009754, -0.2763281943513535, -0.46953176614029757, -0.5170246156793634, -0.34318572415459314, -0.20291491681093304, -0.08280304184227556, 0.007549926261992291, 0.15535086097463005, 0.26524922855146504, -0.5231571521353611, -0.33450924738772464, -0.3095415955982893, 0.19990054091100481, -0.19952318553821802, -0.37051611420358344, -0.29512053163790614, 0.4715015904219247, -0.18066948806328242, -0.15252230102986364, 0.2039975585733164, -0.4803996059625195, 0.25315550906786444, 0.48013719852349757, 0.1263410132620082, 0.3893031782445325, -0.11210374147116199, -0.40068788956448975, 0.013392848227671688, -0.37197422450463197, 0.0576689874709439, -0.024161193494668706, 0.03163189912870712, -0.4686896954728537, 0.3480239705186069, 0.11845435233390438, -0.06545681297844541, 0.16895409454498195, 0.05171209743315005, -0.45021943172523077, -0.26825235160079963, -0.1641873957484207, 0.08756672649048769, 0.030638694187687172, 0.10196630316846522, 0.13872285683075755, -0.13136319051673054, 0.4494610795204278, -0.10116254210246696, 0.29376120354584256, -0.3318745092891021, 0.3322218483001429, 0.3673843873982482, 0.488316739390729, -0.18480494082076168, -0.2813308932707882, 0.2744530922714008, -0.4681967495498244, -0.17689777433989134, -0.2352161681997631, 0.19036101657534255, 0.21935736647153578, 0.41654341867644257, 0.11625693364293395, -0.4596225166392687, -0.06671543817611916, -0.13423575331270834, -0.07099802457045784, 0.29616258135702533, 0.5030525127043418, -0.25037641565157037, 0.27647272873026063, -0.33867739929903273, -0.47135888454209895, -0.42522843846983455, -0.027401447267100268, 0.3829451097226625, -0.11607728498690573, -0.2563446967283688, -0.27868662053552085, -0.056582900361626165, -0.39974205316919353, 0.3585383253324179, 0.4361301659826239, 0.3880342357865636, 0.2276698713792122, -0.4642201499353596, -0.19456050840702827, 0.1750151866765111, -0.001979903090107581, 0.033151773012969434, -0.46104743792352076, 0.40573575322783684, 0.3148524655817146, 0.31189566625416315, -0.37705234850896996, 0.029502408050446103, 0.3995296480484111, -0.15678398688047124, 0.474506659540648, 0.25152634895531634, 0.14597874203296382, -0.24422461050827207, -0.41769065089906277, -0.36840005038238366, 0.013320661477889129, 0.06499901759882931, 0.23230381429489466, -0.3254678471572694, 0.22856352815803627, 0.3912937103797064, 0.25182608886306207, -0.4784763672550142, 0.17872088156064772, 0.09270637172975135, 0.1588870765846611, -0.20535102276742792, 0.27044140643438813, -0.33978105536340997, -0.021236536764541777, -0.5018333707912892, 0.40811104487028943, -0.5020999937634621, 0.3547711775750893, -0.07709603860435972, 0.41189154008102197, -0.17963116389314726, 0.32688091466722174, 0.19983721437296662, -0.10648539621808129, 0.16086752145575084, -0.13408684489905306, -0.07075297829467264, 0.19249319073748594, -0.4119804339590718, 0.02447135534967082, 0.1895907129581449, 0.3585835798851932, -0.3477149285543313, 0.19275752277364414, -0.27039836579737536, 0.4169605844362576, -0.11048269245505826, -0.3847407900521474, 0.41603251206478326, 0.3420338489225101, -0.35229782211529836, -0.03134327077526106, 0.2256125788735405, -0.028478068994980083, -0.4798528558509619, 0.4739963552928067, 0.08160712700050861, 0.16927055083992582, -0.38423636148466295, -0.09619138397251929, 0.3331742740057207, 0.2739075073585948, 0.12167486690404505, -0.10981784667770211, 0.203950138677909, -0.49180989084876103, -0.3857742914804433, -0.13552940498790478, -0.23222075512366847, -0.39336107194392045, -0.2714892219138817, 0.4421289616088947, 0.14326864224338204, -0.4761996195289348, 0.0033127094183726183, -0.455601371189425, 0.47888527957085986, -0.18696993586451457, -0.05073948906497296, 0.05392241492392599, 0.13176891346059025, 0.14216103311803124, -0.21202126417598, -0.00251135037495249, 0.15357371454657492, 0.17822466844021181, -0.3261878541869869, -0.0005798546233330981, 0.22505385593721894, -0.12964026937719686, -0.45515818550639087, 0.1736273986811061, -0.11284261021530928, -0.2796972236552896, 0.19651231815864367], [-0.3104693791348, -0.4580799078544743, -0.4506440326595772, -0.021642452062924478, -0.3103424281631646, -0.0743350673669515, 0.24670983942333846, -0.3763720252465246, 0.3322165273539095, 0.2653865905837549, -0.26974756705261227, -0.0054432416505807435, -0.23000743873169627, -0.3717055223419101, -0.027881556403136942, -0.180566768864322, 0.24637932107070548, 0.45052888786297296, 0.3865328445641202, -0.4025267502754889, 0.2244666496791603, 0.016100028301694325, -0.28003588766959786, -0.2042683986603494, 0.09916465611119218, 0.3474690317873751, 0.4791725415382614, -0.4477202524124717, -0.3055145309428652, -0.17519300698614015, 0.34810480619081363, -0.08856277232032017, 0.019786004861955586, 0.0990232913876381, -0.38272242642268495, 0.0347149882983836, -0.34244387350029803, 0.16408217841492057, -0.25776386823707287, -0.14334358525838892, -0.4408288637034671, 0.4935726723119072, 0.2306624529824217, 0.42070812766328797, -0.2704991947831865, 0.4332804458296428, -0.3282320764294479, -0.06395204515442643, 0.036350661557851494, -0.10560577122573911, 0.13522137720122118, 0.22443445505838955, 0.32014657766123233, 0.4006560262193509, -0.3265230696440995, 0.3118209115235919, 0.07046644639640343, 0.2980161664088562, -0.28589482392716214, 0.07536303786304466, 0.49728984750973404, 0.146492900021159, 0.2945750002435781, 0.43715533497552383, 0.379194525085076, -0.24357558119130207, 0.4080887837137501, 0.18815321311501992, 0.32538255929760074, -0.07780999690385726, 0.06965473770866717, -0.12076828775401602, 0.13952510073269314, 0.013575789752842805, 0.2145646969248376, -0.28224811885792667, 0.4935375776567525, -0.04444071147767894, -0.11881078279181348, -0.39623359979594347, 0.20889915918486923, -0.24464023962657377, 0.10118983364337109, 0.21226968314184713, -0.20135990949136673, 0.2646272840434202, -0.23122735369554115, -0.25162015059159104, 0.2751340529853775, -0.041399076605966645, 0.2293663957812987, 0.032822157533437916, 0.39625812261375315, 0.11355640582630448, -0.48236804632241786, -0.0043254331877799965, -0.3992314565280833, -0.38381485602760224, 0.058031386229010384, 0.1455763992237404, -0.16549028033587906, 0.25805512985326773, 0.4445127787568234, -0.5153492416530765, -0.022751467729855004, 0.24176855068087186, 0.4441529908896888, 0.018140234887978102, 0.3624004745571001, -0.14194253630349185, 0.09365318572892545, -0.008765943693737066, -0.30435635550583595, 0.45855644744391233, 0.3027644428065548, -0.4361011720230795, -0.16937655601790097, -0.46675707265315747, -0.17210484806501247, -0.16998940412030236, -0.2267951519353771, 0.4050489116604642, 0.28203223028712454, -0.37029078348271005, 0.027970287749573643, -0.31834600028874055, -0.3617377063825367, -0.3201175676149478, -0.49571679759848986, 0.3797102580867652, -0.3367777303111642, -0.29489923395792556, -0.07754105580253008, 0.3763612743056027, -0.465572792684966, -0.35792750569428783, -0.4225693927260511, 0.45270768854989896, 0.2281512924154313, 0.0017352352422143058, 0.49223405889674976, -0.09156927315758445, 0.12920176551733542, 0.3971177193189576, -0.24423487127790344, -0.316051762054817, 0.392931137235783, 0.36489092197173434, 0.2072805737455557, -0.4014769322593853, 0.09067555842506711, -0.12109352826043789, 0.10281546171810838, -0.1405777483840874, 0.47499075451202816, 0.389479411297968, 0.008475582461061218, 0.24723339959196544, 0.3740728375607611, 0.14810475237831727, 0.40665731027896757, -0.42373062687404667, -0.050053997845735256, 0.1625623960846007, -0.41322461049447273, -0.12844321458295985, 0.2911454418198438, 0.1454040347240444, -0.12123153669038012, 0.07633757748389736, 0.1814598171988251, -0.42509442176735, -0.22942895482723552, -0.39208487035132544, -0.1949837369101938, -0.32291266502921717, 0.23371426262503542, -0.1634922827030773, 0.3377309751558849, -0.34603109680877353, 0.2839922537348926, 0.39001985807752027, 0.46003523091615744, -0.2537583452592067, 0.10536979846914318, -0.15410578569383188, 0.08328604046456745, 0.17379349534657823, -0.253870684413851, -0.416454310080433, 0.4590813302230231, 0.22848775345484182, -0.38883951018061863, 0.09800619230207044, -0.4497544712703944, 0.3158255731202816, -0.12278483783562888, 0.15705206502822688, -0.020273539898744555, -0.11259593838932827, 0.0650289587209789, 0.27289092379362273, -0.362950884835115, 0.36127668948139857, -0.026514744126687053, -0.046737065610883824, 0.5068596358820902, -0.08534453645181352, 0.11838303370486292, -0.4373703873379306, -0.18663358294679153, 0.399790469920114, 0.0963043481098151, -0.357983394268797, -0.10953706409083203, -0.05921000846650719, -0.12767383594096926, 0.03301173349064364, 0.21658893547383962, -0.16986258200252896, 0.27851305476462435, 0.39527088081511147, 0.27281258231298766, -0.48597598616940313, -0.23850414329739755, -0.41441246789844177, -0.060341011855627166, 0.19904954021227853, 0.2588482440748479, -0.350090905845056, -0.3232462313223432, 0.4472704409276634, 0.039549379624862165, -0.11023562502165223, 0.27021118577248476, -0.3685741172967216, 0.43103904183825853, -0.4167063997195677, 0.2433408359594871, 0.22408088554230227, -0.24090083997702375, 0.24238159014304506, -0.30277956643340753, -0.428386338400402, -0.05762929830823835, -0.11396295235785699, 0.01781026400281718, -0.331104580984634, -0.23825726163252148, 0.4151199660631981, 0.34326285353284525, 0.43129944449902957, 0.2614744135796093, -0.45111076407190265, 0.22886052931125028, -0.1433347998052354, -0.44292769061450477, 0.05052819121022768, -0.09390612331999722, -0.42420488264890355, 0.442300579162684, 0.3002819621520402, 0.057640298981002716, 0.06627644806044297, -0.4579114015638437, -0.12231159290747291, -0.4426895442649685, -0.03296961612497604, 0.46696374835968557, 0.1824110704306549, 0.18605839968845542, 0.3606516766492774, 0.4784366043671303, -0.029563619306825762, -0.02749642585523568, 0.14710302383419754, -0.3297961689104188, 0.17605953935693852, -0.00521295187824551, 0.30453915051472424, -0.3304869170716642, 0.37304156046589065, -0.40107972185705326, 0.21209816362536602, -0.3030668610504362, 0.1583561320153638, 0.09825407640946769, -0.028004378470484675, -0.03504212834143425, 0.3949556879923494, 0.23103362065823235, 0.48295282482774565, -0.5016797275662941, -0.011995422039872744, 0.4225250136001389, -0.35607616977582596, 0.2635580111861415, 0.14363824772647654, 0.3690388116843783, -0.06491296338247232, -0.48967149194007925, 0.20854226933035583, 0.24217576473121902, -0.09169971800819647, 0.1938746732749108, 0.44390979716343965, -0.48978374359677856, 0.04031233661619327, 0.09889691746075602, -0.14063800066463428, -0.1157436302587168, 0.4738420407800902, -0.2889748207395612, 0.4880438293061316, 0.19182671252666972, 0.11853405593735092, 0.2329900494666124, 0.338657865504673, -0.03784601234487439, 0.4362380778804749, 0.12437588633528278, 0.2765381318843845, 0.21446645799492428, 0.4741303529416004, -0.035501233676634346, 0.3320574834153987, -0.4660966977637965, -0.48664481179172664, 0.02541029517942212, -0.208993689208964, 0.1702427363141591, 0.04694783298916871, 0.34590225611589387, 0.17747694898785002, 0.3477082812357731, -0.20367748220613813, 0.28174525230760294, 0.4502917902442135, -0.3715859834235453, -0.24161355709189347, 0.29876736627782435, -0.21260739693224104, 0.11233586214299474, -0.3512319378879169, -0.35549115575976187, 0.05939759205715437, 0.25179435692508867, 0.40558228675093266, -0.022673386481541585, 0.1257170555522306, 0.08930280457236663, 0.37807155611195115, -0.029211570085682745, 0.401653585453784, -0.32463399881244176, -0.30408297492259967, 0.4867649318203834, -0.2143748146434905, 0.06561457419561799, -0.42614072907801964, -0.3518049658540233, 0.06185000686593259, -0.03297638538920177, -0.33260084986514116, -0.4457796725493667, 0.29241115777636684, 0.4721966784923581, 0.46530194947360454, 0.40182218986714924, -0.26305671616358245, 0.25752019413162797, -0.21214100853837967, 0.37452957831713224, 0.38022884796071976, -0.016366765169790538, -0.47080010805743777, -0.14054165335160235, -0.0901651363218799, 0.18422700672663064, 0.188373713409661, 0.42673153670417235, 0.0013610997448248285, -0.4777322469859115, -0.2218220029031304, -0.0756072483821565, -0.3427874162191274, -0.03534123233920821, -0.05076915112305013, -0.4749609579908843, 0.4302365324192102, 0.15699456260381656, -0.02766391074781016, -0.2598204715038268, 0.1518498251402539, 0.39089100951242806, -0.467583426218286, -0.22989843028881565, 0.3591716359798496, -0.25533474584199034, -0.4077533099641713, -0.13214542159045167, 0.4523713194960984, 0.333490158958954, -0.03885346894490974, 0.2650001349396063, -0.136351343615086, 0.32844044352117074, 0.3622705529713525, -0.24598851085687465, -0.27013007563342734, 0.17340640970153334, 0.2548443650273626, 0.2503298854354264, -0.4218927984448211, -0.29411097357922833, 0.18334848565266992, 0.11095285650674123, 0.22775337397258685, 0.20823189301045483, -0.12106310109473362, -0.41480677686190814, 0.22557745529374285, 0.008421181485482432, 0.4338709029848688, -0.11008212021600708, 0.40075525350960123, -0.028632878717446547, 0.4228704543231168, 0.07421054381784377, 0.4722326636863775, -0.22671293172144152, -0.0761015405692882, -0.16859059588582842, 0.46963482180399757, 0.49880286573362875, -0.11871735729725365, -0.0997942413529955, 0.25753059017226676, -0.4198142504396568, 0.023226544291166766, -0.4938552133414803, -0.2740191090212946, -0.09587898360930888, 0.28417843440932844, 0.08750895026206013, -0.11343787245791452, 0.3077334854790074, 0.34698561573079356, 0.12600024847102465, -0.22784953308986677, -0.07538314888134659, 0.03587015103521006, 0.45504397720624695, -0.22485503206189694, -0.36632547659524684, -0.2516748276761993, 0.36866754466268564, 0.1233808805666593, -0.10647015981439592, 0.46214644997075005, 0.13004034304241582, -0.25774348363144894, 0.5290458369217322, 0.5908607747181743, 0.2521074257434233, 0.3473553857244788, -0.34970796201589344, -0.4709370771553256, -0.4492177581475265, 0.07406359579956012, -0.46972776008419703, -0.3270631163770368, -0.16903162411257208, 0.3732050363668377, -0.4378304914858941, 0.019784121985447656, -0.4617980117726549, 0.4014863054977452, -0.16568507661092244, 0.11632180583048359, -0.4617996855320887, -0.17519974446708497, 0.13082363553577084, 0.4466128613917787, -0.0042183223880377435, -0.48837835809218816, -0.23922327300268786, 0.38867370491291736, -0.3325463010534105, -0.22672780620355623, -0.03966339299155995, -0.06989712109974112, 0.046492649268749124, -0.3573378802512392, 0.09824676413582521, -0.2493836359226073, -0.2004209797185731, 0.4377832047830587, 0.10408149998305667, -0.0817311363611193, 0.23634797284088727, -0.3871945196390063, -0.42774592490796337, 0.00990671534729215, 0.41929890426261485, -0.11931135247637925, -0.385627629037606, 0.16034547475030167, -0.4302269853420121, -0.0987728490535334, 0.24761839546227865, 0.06707510055768987, -0.3897303293067319, -0.10855283562276066, -0.43600632302754355, 0.3966329468109442, 0.4227535397009363, 0.309517862854783, -0.051513665331810975, -0.04383587280334844, -0.3944774650063099, -0.2616845406047645, 0.06784296358671557, 0.14053442746316336, -0.21071511055403627, -0.4703306551175671, 0.012585876620400189, 0.2212502549247741, 0.3106689873255198, 0.38257228213569694, 0.05429488450031217, 0.0013579866329490597, 0.49090188249363165, 0.37804943761928045, 0.3341749974766819, -0.39708257759486904, -0.5008214637579899, -0.3502029010765953, 0.4093410674218804, -0.4808648814976865, -0.32413556237694346, 0.19502534700297833, 0.3721756322298344, 0.19791697131630162, 0.3042907152265757, -0.22321801209609415, -0.4524007515195124, -0.4105577365470561, -0.21592377629942536, -0.49412760614145984, 0.26867648994042675, 0.37938344105636657, 0.41548203579243087, 0.07683396182140523, 0.07005118593369328, 0.4068746582693678, -0.25645198302601613, -0.030993810754529432, -0.13659982736557963, -0.49730767342296045, 0.3391855884188816, -0.017287524079980687, -0.4732323398452598, -0.45566746755666193, 0.4867592740886013, 0.2650794446815302, 0.10088121179257631, -0.4096254448808134, 0.19242036299329326, 0.044601007333521875, -0.1123769779860641, -0.05698181645837305, -0.473122011499518, 0.10117763678612778, -0.22857925116001995, -0.5191647971054589, 0.2505625010641519, 0.019055862582161378, 0.44781502474310764, -0.17150976748899635, -0.3047678106970661, 0.4057992646544937, -0.06879755545172044, 0.054087334464771826, -0.24129095564563363, -0.0059627282444320055, 0.29423565145053804, 0.2813452748859133, 0.3223140617839493, 0.09958248280496007, 0.19984126311203676, -0.21204491604217712, -0.05409621832181736, 0.3185255317999524, -0.4112378416575884, -0.39836585803631797, 0.43169258794421217, 0.13656028328350253, 0.4127602304508566, -0.48896675648797516, 0.13464970288875241, -0.27464771861066284, -0.3632581687017061, -0.018390671830376737, 0.3618782520883548, 0.18394151188746585, -0.27756575072600553, 0.4753967351591873, -0.4166679777597389, -0.2437698831521081, 0.46946787921355954, -0.23226743276896442, 0.48885411745575263, -0.27754527685089136, -0.4183993954498297, -0.13770685663396465, 0.007814062419755241, 0.2676565951289275, -0.49230853964961, 0.48994716358631385, -0.2085815129382867, 0.07009268261364249, 0.3180306395213258, -0.04153061545836369, 0.11275410911495914, -0.4157407294289777, -0.12403504882931313, -0.18489696581278456, -0.19455241557390496, -0.19958793168681124, -0.11827905868730956, -0.032807788801078645, 0.30869218039852536, 0.07101202239851637, -0.4238425899935426, 0.36516384231796306, -0.455194908023533, -0.2907714031432408, -0.2336434882679079, 0.15257325141882203, -0.44900618750480653, 0.43709297040692685, 0.3398445374801922, -0.39310344815101605, -0.41800788810059086, -0.05185814010528722, 0.14409750364682228, -0.23918051058865272, 0.20789210999555272, 0.4003921519850551, -0.2557446335099576, -0.22188484902427644, 0.21517458443447077, 0.35767891021471504, -0.4948528979977722, -0.033113908500820764, 0.0866301100346957, -0.0013298285310884912, 0.14220927942729897, -0.34756824087726407, -0.2415612095794069, 0.05695825820976496, -0.07071969704687907, -0.32119014229483267, -0.3263676436816817, 0.27848166676108155, -0.4078403538334673, 0.4484988927458117, -0.040624567420933885, 0.27833740732740264, -0.11504634219512033, -0.044284535985851914, 0.12930422053728996, -0.0883066636750266, 0.38746242736055825, -0.44161504271687924, 0.10647459449433315, -0.05282982755649119, -0.06283774949146217, 0.04501143740933475, 0.31812803731211425, 0.26931755575617045, -0.19967078191741738, -0.36503591205636443, 0.45474735534576927, -0.1767574046570366, 0.3240282491707653, 0.17047218646973908, -0.22622245829701165, 0.32644311059791853, -0.44571761702222185, 0.232299506324197, 0.13031565695310424, 0.5012914996337541, 0.3611662540501379, -0.2903698665486822, 0.12027009087173242, 0.05752276789920785, -0.06342288253101402, -0.016718849202252195, 0.2712474343207697, 0.14984799334451804, 0.43873787767160755, 0.35555112106181114, -0.40325180447559605, -0.1508529916896949, 0.3745021179006641, 0.273403249194126, -0.14225545070014073, 0.0405588802410753, 0.006398606700241245, 0.17890652261953505, -0.14518332204430173, 0.3833458888814405, 0.05916636278257408, -0.3405291939431454, 0.3253741282017702, -0.12186546647109203, -0.05943355393945909, -0.2553709481881027, -0.2142415084946293, 0.2380414306367799, 0.2923161066055123, -0.4227984077938771, 0.11101932482853548, -0.26334994027935577, 0.10013139234992563, 0.3148660042632647, 0.10870567378742602, 0.24390570152909719, -0.20578045019351998, -0.1070425958364591, -0.334334553117982, -0.08727260240090581, 0.21924411601848406, -0.3538743136265897, 0.15806211909884044, 0.28147197075761937, -0.1371377777229422, -0.05983571220418315, -0.06220507397424807, 0.13945080455839942, 0.41162345288711805, -0.3631542331558832, -0.28080272050487937, 0.06275830590402418, 0.060959678783176804, 0.17928950990922993, 0.009059023527793808, 0.46667275319510426, 0.15186180745693645, 0.14610410777318739, 0.37731081025509217, -0.15563976177221206, 0.06432376783520188, 0.3320701959335117, 0.18966961274019445, -0.07452561576945071, 0.24786925550841488, -0.24189338254827153, 0.3176751241331406, -0.4899177570659234, 0.11358214783558164, 0.43414378772301704, 0.23506448306095415, 0.495132433541427, 0.15725004243935845, 0.054404637003188205, 0.15394848179862547, 0.4677483669151321, -0.43081544981680164, 0.3077603166375701, 0.23292209670013925, -0.29010390154576793, -0.11155729411293087, 0.16629771112300026, -0.3274556897810701, 0.09649704664754155, -0.0252999118817282, -0.22662192094518852, -0.4323805376739214, 0.21375365283969816, 0.3855565208937509, 0.3209907842368013], [-0.4231913839579229, 0.0007249682891533604, 0.35866755229738734, -0.30430432142918284, 0.10542552482488476, 0.28958876158374736, -0.1544487861066064, 0.09196847276055942, 0.4305058482527002, 0.1658792197576524, -0.3522038499596627, -0.1809746191032442, -0.28139850551449763, -0.17896177758046505, 0.09445526076748434, -0.34551513922906874, -0.1458030824893224, -0.012460937145400974, 0.19834094069208952, 0.18574475474344476, 0.4087228110485014, 